921 128
14_10104 0.13069959 -0.21566923 0.024802499 -0.028676799 0.2387294 0.20303488 -0.014405359 -0.24218385 0.2697363 0.15189604 0.14992769 -0.049993813 0.06999914 0.7666634 -0.090705566 0.0607213 -0.22517323 -0.025830831 -0.39955524 0.35325113 0.08900707 0.19065742 -0.17303969 0.09026233 -0.03450806 -0.2626426 -0.38751072 -0.11860984 -0.046088465 -0.40580738 0.2872772 -0.6026963 -0.0450668 -0.3038303 0.3486612 -0.068421476 0.11284242 0.14804277 0.39350632 0.2753231 -0.14627253 0.20216943 -0.4305357 -0.030257065 -0.025696106 0.015807444 0.15825184 0.026780043 -0.14952731 0.20571625 0.4137079 0.30158687 -0.14418465 -0.1390444 0.1038397 -0.06337907 -0.5449707 0.08237036 0.043635502 0.30587685 -0.2747468 -0.0030946475 -0.12661183 0.574931 0.2940704 -0.46884403 -0.32769525 -0.6676963 0.21105497 0.099983275 0.19093771 -0.3938491 -0.3500497 0.26841646 0.07880686 0.02944236 -0.21517996 -0.080271386 -0.56667596 -0.05600387 0.02728941 -0.07328065 -0.5100297 0.35633427 0.048697542 -0.029612118 0.43456203 -0.1637585 -0.46226636 -0.34082922 -0.29674837 0.5842166 0.12185751 0.2746382 -0.08552015 -0.033544324 -0.68653107 0.51988304 0.67821574 -0.002629532 -0.18781987 0.1704162 0.3251385 -0.12889269 0.19667341 0.06838945 0.2797897 -0.23787469 0.68731934 -0.11440356 0.31518662 -0.08826244 -0.021061597 -0.1211804 0.023860214 0.08327766 0.38523516 -0.40474573 -0.0640853 -0.11930498 -0.3537617 -0.25192755 -0.24047014 0.14151216 0.3133433 -0.61797446 0.19351612 -0.20643267
11_10097 0.1238273 0.019842 0.0483552 0.18271695 0.32773948 0.23912723 -0.40005624 -0.3155119 0.10884867 0.39090723 0.40764278 -0.004131448 0.023147864 0.45966455 0.047464322 -0.5650531 0.09201896 -0.0730498 -0.20818436 0.17793718 -0.12357138 0.097473435 -0.44024187 0.06507777 -0.22633958 -0.15366125 -0.042060696 -0.21050234 0.015103285 -0.30247444 0.58752054 -0.37474623 0.036643326 0.06685232 -0.22135869 0.13811031 0.21284615 -0.17382848 0.21004625 0.023469584 -0.028352994 0.057807565 -0.47405717 0.16861898 0.10313451 -0.04991841 -0.2988068 0.22166298 -0.2943223 0.28698945 -0.28741282 0.4737146 -0.0052005867 0.11610654 0.009818835 -0.08805038 -0.15476452 0.21476638 -0.19868654 -0.2545876 0.060968705 0.009134913 0.08194074 0.35801998 0.41332826 -0.39189994 0.18749158 -0.38104966 0.057867367 0.025665335 0.41197965 -0.17920357 -0.05117597 0.31824604 0.28588712 0.2623026 -0.09471761 0.18016802 -0.5043151 0.11106201 -0.35131308 0.0066460883 -0.41353816 0.17583527 0.4239871 -0.13089657 0.04146079 0.20769265 -0.086936325 -0.19721532 -0.4125718 0.25770998 0.23600353 0.3416973 -0.1849594 -0.32372788 -0.8822793 0.502038 0.44834912 0.26405585 -0.006083014 0.16161208 0.37428045 -0.14689226 -0.13984977 0.3127776 0.6375983 0.11456244 0.44311637 -0.113210596 0.0106181335 0.45990214 -0.18325306 0.12674044 0.16212772 0.1906016 -0.04951822 -0.019599294 -0.21644709 0.22225213 -0.18199064 -0.037941996 -0.19823562 -0.16925259 0.357369 -0.39548635 0.2764675 -0.06176946
16_10097 -0.08070667 -0.122162506 0.08194662 0.20550829 0.10321403 0.0007110379 -0.29609966 -0.36712986 0.14702123 0.18045133 -0.2574626 -0.026348755 0.16124569 0.4169792 -0.07128322 -0.41118726 -0.014563177 -0.13442716 -0.082287915 0.07855114 0.07451207 0.3838331 0.011847735 0.24046318 -0.1523479 0.013312279 -0.20732217 0.046691034 0.09830928 -0.1800371 0.16343313 -0.45285797 0.031235429 -0.051465083 0.088644795 -0.034714866 0.44376788 -0.04372533 -0.053665366 0.04965496 -0.06937167 0.786985 -0.19456401 -0.019330755 0.06644819 0.08070724 0.52885205 -0.14738052 -0.31876624 0.3612688 0.16980791 -0.01888969 -0.08259887 -0.2229575 0.25253218 0.07906854 -0.4106926 0.098979965 0.0074611004 0.0028076805 0.003050734 -0.13784 0.111794464 0.21537 0.48549014 -0.57620984 -0.25635108 -0.5873109 -0.01885031 0.08843865 -0.14914139 -0.19551519 -0.20493245 0.28085628 0.07040189 -0.15943955 0.017841907 0.058140825 -0.3423564 0.2776363 -0.016053747 -0.07069458 -0.3095287 0.06751512 0.5014857 -0.17230469 0.1719428 -0.077382274 -0.4826402 -0.36343855 -0.5966287 0.5206588 -0.110276856 0.52106094 0.17142823 -0.1169957 -0.7245499 0.3577833 0.32946435 -0.16760202 -0.15625072 -0.2215027 0.23085359 -0.001673015 0.13811958 -0.04553284 0.1612067 -0.01181521 0.4883039 -0.061227925 0.06759766 -0.09808834 -0.16204566 -0.34675908 0.058831517 -0.25141415 0.10921572 -0.3057728 0.055185318 -0.026473979 -0.2662488 -0.3613288 -0.49069047 -0.046658665 0.50348747 -0.46913245 0.07117117 0.18788129
8_10094 -0.037767444 0.028304648 -0.016551696 0.07181482 0.23717317 0.5148546 -0.28000966 -0.12585902 -0.03588638 -0.109179415 0.0005963007 0.028666796 0.1626626 -0.03592695 -0.03342588 -0.38709643 0.12804897 -0.2750008 0.21322657 0.067469634 -0.124104746 0.074191265 -0.25763354 0.044312935 0.025427371 0.019534022 -0.23947138 -0.12194341 -0.15905638 -0.1223051 0.4266228 -0.17994136 -0.11289661 0.19336556 0.3223633 -0.12535869 0.09194746 -0.019879017 0.25204 0.17190258 0.2995024 0.15380529 -0.26712352 0.22997487 -0.24871641 -0.038853884 -0.07912743 0.03214927 -0.2810208 -0.09149889 0.023831362 0.13322538 -0.0035259898 -0.034630854 -0.24495268 -0.41239235 -0.17119806 0.04440221 0.14366534 0.0061856983 0.012418846 -0.1265094 0.25798088 0.43250403 0.1248883 -0.11117565 0.15830605 -0.13626882 -0.13436556 0.099181734 0.424013 0.15650132 -0.09365038 0.31161082 -0.08258647 -0.015025606 -0.19930276 -0.1271699 -0.25207075 0.49769515 -0.24483348 0.0603495 -0.1339161 0.53818774 0.78067786 -0.24916722 0.07706722 0.083931565 -0.06147431 0.19186273 -0.5787032 0.4701469 0.11932195 0.33669436 -0.17812707 0.003060286 -0.7089554 0.07131613 0.25243512 0.30721214 -0.21527795 0.36653984 -0.18125999 -0.080572896 -0.06539172 0.1621221 0.54451954 0.020419253 0.047231227 0.12137435 -0.11566688 0.0079313805 -0.24213412 0.3590532 0.18220831 0.047212005 -0.059410967 0.047132794 -0.17286992 0.14820857 -0.28349704 0.09227189 -0.30346695 0.06548334 0.47324213 -0.768129 0.68926084 0.2629091
17_10097 -0.08076654 -0.3347962 0.26989332 0.15082906 0.025714412 0.20405559 -0.43005237 -0.3735418 0.14767733 0.03157327 -0.39989403 0.0071994415 -0.14358091 0.39917088 -0.10217309 -0.26745233 -0.009186073 -0.16864786 0.12566772 0.29245165 -0.09435003 0.14803202 -0.0879625 0.073152915 -0.31003898 0.110428125 -0.16229002 -0.058731023 0.3101544 0.074899614 0.2452493 -0.47234583 0.19538113 0.21335588 0.13467966 0.0988718 0.2486786 -0.044662688 -0.1231886 -0.01604117 -0.2363131 0.42175132 -0.1625333 0.17430037 -0.06732866 -0.23565365 0.17776568 0.05152571 -0.29797012 -0.09191323 0.039484687 0.04612625 -0.1330453 -0.25438732 0.021610627 0.13964693 -0.11942645 0.049139705 0.065211244 0.09237464 -0.24360287 -0.2755703 0.2398365 0.16610366 0.28285018 -0.13773026 -0.23984215 -0.52523714 0.23104352 0.282232 -0.13538633 -0.45826018 -0.37328202 0.2909226 0.06915999 0.026814964 0.116342574 -0.14428456 -0.15916815 0.30197716 0.097301684 0.020907825 -0.29795337 0.2377347 0.084192075 -0.30733505 0.2896951 -0.36713728 -0.5716839 -0.0397326 -0.58925647 0.31978047 0.17863548 0.70205015 0.009569987 0.18166561 -1.0854169 -0.0110433595 0.22672407 0.108444996 -0.34863168 -0.17011358 0.27005067 -0.22871137 0.08862004 0.3134042 0.32118303 0.070313655 0.6485147 -0.16605207 0.39048973 -0.0033066138 -0.19222575 -0.18503073 0.046195015 -0.12200327 0.44223592 -0.18751232 -0.049747676 0.061141193 -0.2667246 -0.14045501 -0.58587825 -0.22835995 0.34868905 -0.4812938 -0.15286863 0.12753953
8_10104 -0.20782712 -0.05815319 -0.056449205 0.16791242 0.23663943 0.4431664 -0.4398669 -0.2288464 -0.031819157 -0.20846087 0.10200589 0.08236868 0.16146505 0.340378 -0.057511687 -0.5492621 0.15779364 -0.15680946 0.005614672 -0.05118998 -0.22971022 0.005670776 -0.40311718 0.042913035 0.005546858 0.039236374 -0.40344867 -0.103726864 -0.27245283 -0.40572578 0.48366702 -0.29292166 -0.07834566 0.253106 0.19382004 -0.079437226 0.05490687 0.14730485 0.45288655 0.3071182 0.29772365 0.025966145 -0.3788238 0.18781841 -0.18983376 -0.022666594 -0.061850525 0.25186253 -0.5220183 -0.1047896 0.09514854 0.09789441 -0.015801998 -0.063705996 -0.074354246 -0.37965968 -0.0037789207 -0.083294414 0.091565676 0.027078714 -0.14960739 -0.114611365 0.19546567 0.53440374 0.31017312 -0.11749066 -0.0075802966 -0.3562338 -0.15953077 0.07163042 0.60034794 0.057447303 0.002210256 0.37308264 0.08314952 0.07138809 -0.1827762 -0.20293163 -0.2879061 0.4570208 -0.24503472 0.065159515 -0.14821553 0.261757 0.5967963 -0.102140665 0.1266385 0.0669118 -0.063609675 0.16520633 -0.6004758 0.28750533 0.020745726 0.34527615 -0.2900333 0.099072106 -0.7185515 0.09119765 0.3064632 0.3392422 -0.14792608 0.3473195 -0.08722785 -0.1999802 -0.067735575 0.08258788 0.60727686 -0.036974594 0.036929935 0.0525261 -0.09174152 0.0029618412 -0.20633695 0.29071704 0.15947309 0.25085565 -0.27585375 0.0143344 -0.13467373 0.090726756 -0.31124806 0.13153782 -0.32413143 0.06748348 0.35957086 -0.63329923 0.5784994 0.27572414
8_10096 -0.10514007 -0.071572185 -0.015653437 0.100270696 0.16394763 0.42299646 -0.39099926 -0.2072812 -0.020358995 -0.16728501 0.1115343 0.037803285 0.15677674 0.18223155 0.06269143 -0.45400652 0.17510363 -0.17606378 0.1038458 -0.06748803 -0.27570665 0.04157404 -0.28481877 0.12361693 0.06403127 -0.08796188 -0.41108194 -0.14482546 -0.12600128 -0.40203255 0.5400189 -0.17114402 -0.09984819 0.13169824 0.28977272 -0.19052072 0.08479076 0.075427085 0.3964205 0.19569066 0.2895324 0.029413577 -0.33997342 0.296566 -0.12883236 0.08444539 -0.056564238 0.17915362 -0.3924226 -0.12575741 0.15558656 0.15358804 0.20802924 -0.030310621 -0.06836842 -0.37251362 -0.05995479 -0.05733997 0.05460884 0.045576055 -0.067700155 -0.063296095 0.20500594 0.5366253 0.3300638 -0.063349985 0.12051896 -0.22973135 -0.1575465 0.18828368 0.53682685 0.19272408 0.00925902 0.43211 0.05643007 0.08029809 -0.07419881 -0.26130995 -0.23652287 0.5924484 -0.24357955 0.102294505 -0.13384347 0.45907152 0.653436 -0.20919624 0.16742343 0.038641762 -0.11301099 0.2671916 -0.5753032 0.36711425 0.0696279 0.34488088 -0.24377128 0.032576106 -0.7359992 0.09140751 0.2795041 0.40788132 -0.20208538 0.35180575 -0.09144658 -0.22997394 -0.050221764 0.1636202 0.6549514 0.050089154 0.034394935 -0.048360717 0.06781844 -0.05877922 -0.13533756 0.2074235 0.25983286 0.21253462 -0.1737064 0.0652677 -0.18440801 0.17755798 -0.39542526 0.073398694 -0.3265984 0.05132725 0.46662384 -0.7215934 0.5191148 0.26931277
8_10106 -0.1534238 0.040447995 -0.12335263 0.113811105 0.15272175 0.41809353 -0.4121264 -0.19417833 -0.123984374 -0.31980503 0.13836142 0.04825815 0.031887606 0.23492745 -0.06411614 -0.52315235 0.11262702 -0.1913276 0.17415392 -0.08945236 -0.26903224 0.015966566 -0.37740305 0.119642556 0.07797434 -0.13797475 -0.3167117 -0.15209047 -0.22108549 -0.39377576 0.501838 -0.25712356 -0.034271874 0.16217399 0.25033465 -0.08143317 0.0140504055 0.17144561 0.45617744 0.25995424 0.32340977 0.11041815 -0.28537026 0.2745288 -0.085592695 0.059211075 -0.096417345 0.20791161 -0.44084623 0.0056224857 0.06293174 0.093948424 0.07242152 -0.08202526 -0.04930114 -0.3196302 -0.17411828 -0.10859476 0.009979635 -0.047641635 -0.1246304 -0.09058955 0.17756721 0.4203102 0.27793857 -0.019532658 0.06329871 -0.14718837 -0.14843729 0.1210309 0.4339712 0.23044506 -0.04031603 0.40368852 0.050994396 0.110393405 -0.10267109 -0.25173822 -0.20721865 0.5384282 -0.21658754 0.040947564 -0.1656863 0.3180756 0.6972935 -0.28125715 0.16709477 0.06290798 -0.14132823 0.28652385 -0.68706816 0.40520796 0.057493124 0.38420478 -0.2633698 0.090048954 -0.86772317 0.046328768 0.36735356 0.39767697 -0.09898979 0.373048 -0.026595622 -0.096985646 -0.049214978 0.115931086 0.60182786 -0.044110082 0.068426676 0.042192765 0.056080405 -0.04636171 -0.17552713 0.32041657 0.21227328 0.19358191 -0.20159885 -0.0038723187 -0.19824505 0.15961671 -0.28806984 0.10413254 -0.39612773 -0.055976577 0.49457225 -0.7398311 0.6049268 0.29532
11_10104 0.12922783 -0.0070015783 0.06633837 0.20214787 0.28705508 0.36715767 -0.3699396 -0.14968827 0.015205877 0.20439999 0.38391435 -0.20348474 0.05973517 0.61273915 -0.10567035 -0.4604857 0.15284662 -0.20406099 -0.20275483 0.17739081 0.06467306 0.381854 -0.5580334 0.037225448 -0.21470508 -0.14904155 0.073198035 -0.15721609 -0.010717251 -0.26215458 0.4834494 -0.39162248 0.08028723 -0.022809695 -0.0012806898 0.22169551 0.09459656 -0.14483331 0.3032038 0.024962269 -0.02296355 0.03308284 -0.54639417 0.17762177 0.24186061 -0.0345825 -0.27501464 0.28935912 -0.3283996 0.042787287 -0.1329968 0.51198775 -0.012705498 0.06755057 0.055071842 -0.17659517 0.0002537107 0.107534066 -0.02965396 -0.0060105543 -0.006524177 -0.081193574 -0.11274497 0.45439336 0.35652927 -0.3355324 0.18959013 -0.41485393 -0.01544854 0.21266727 0.21294835 -0.20739724 -0.026328659 0.31268802 0.24119933 0.0074762153 -0.15532987 0.19688766 -0.49546546 0.18360242 -0.2145954 0.062263884 -0.32873806 0.14764628 0.39401528 -0.19108489 0.113167845 0.13222438 -0.10708087 -0.1325113 -0.31175178 0.28438658 0.18605442 0.35512578 -0.1720008 -0.21195343 -0.49333322 0.37124792 0.21119928 0.09628312 -0.09679583 0.09596412 0.28408107 -0.12353924 -0.16026542 0.21098064 0.65475 -0.026424205 0.3817461 -0.13855872 -0.11887078 0.33159262 -0.106233574 0.19903228 0.03235049 0.13794632 -0.049075507 0.15472755 -0.1690411 0.21678716 -0.115943015 -0.039707277 -0.41231662 -0.1491868 0.31580898 -0.32476497 0.21671462 -0.08689633
17_10101 -0.014124123 -0.28430244 0.020906067 0.15447132 -0.13452314 0.21767296 -0.17722513 -0.23502429 0.007866285 0.0693481 -0.3503878 0.17610277 -0.23763584 0.4568671 -0.2189332 -0.25428712 -0.03087624 -0.33790812 0.13136105 0.33046985 0.012492102 0.32389516 -0.047358144 -0.006671387 -0.377967 0.06484651 0.0929054 -0.13822757 0.35698766 0.10116183 0.104189664 -0.4068367 0.25049475 0.2935678 0.1703538 -0.0049674935 0.07612324 0.014789538 0.076673485 -0.12708288 -0.1604842 0.6703312 -0.033298787 0.18518892 0.05986147 -0.24877857 0.3151662 0.0040790555 -0.3350402 -0.10489831 0.18837376 0.20488204 0.0222785 -0.15818015 0.050936714 0.0024344507 -0.10493422 0.00441355 0.27141765 -0.09054362 -0.40184838 -0.07259121 -0.0046576643 0.2979879 0.0753863 -0.33232492 -0.06125072 -0.56416166 0.22451714 0.22553124 -0.026508305 -0.5279047 -0.22028919 0.37883744 0.09378833 0.047287825 0.13986744 -0.25598842 -0.07507954 0.20531829 0.035847995 -0.15213378 -0.18225573 0.27718723 0.04742035 -0.2113008 0.2894906 -0.16056858 -0.43446323 -0.06778679 -0.5546428 0.467142 0.050885823 0.4357762 -0.013548673 0.14877774 -0.8946292 -0.10364573 0.284487 -0.015194245 -0.15896915 -0.14445275 0.1902909 -0.07162403 -0.01810001 0.21408133 0.3822372 0.04196588 0.47478288 -0.08777486 0.26389205 -0.09302826 -0.18211688 -0.26302817 0.10503244 -0.16083172 0.3614209 -0.032819647 0.073110476 0.07591274 -0.1670417 -0.25909615 -0.6420582 -0.27733377 0.23945756 -0.434738 -0.25823143 0.2177894
8_10101 -0.0027767587 0.042954735 -0.10876841 0.1682031 0.10138036 0.41674772 -0.43189105 -0.28051478 -0.21393923 -0.18600674 0.23013997 0.03134485 0.20858556 0.2722337 0.027217228 -0.40789276 0.08779514 -0.12624651 0.2899172 -0.02710222 -0.2124724 0.029938847 -0.4631706 0.012954913 -0.025691444 -0.2017778 -0.30938327 -0.11023672 -0.015559353 -0.7160159 0.57224923 -0.36540788 0.02399877 0.2078167 0.25811955 -0.16119139 0.15622497 0.0041531734 0.31468347 0.19080384 0.3242511 0.27833137 -0.40322468 0.31803152 -0.0005475302 -0.07611119 -0.037402555 -0.029979283 -0.27205098 0.092454456 0.048294436 0.08301112 0.12100268 0.046925794 -0.12936962 -0.35781997 -0.091968805 -0.02973671 -0.015835825 -0.06996165 -0.1551249 0.08539072 0.169451 0.52199155 0.28598866 -0.12325658 0.1645777 -0.27610883 -0.0077159344 0.13316688 0.4641284 0.30134287 -0.2385336 0.24643105 0.053510033 0.07300031 -0.086398214 -0.37003422 -0.20422289 0.37489232 -0.2428628 0.022051018 -0.14641583 0.39811254 0.67097807 -0.15423213 0.062958695 0.015016505 -0.046208113 0.1741276 -0.4718608 0.26804927 0.022015542 0.2338367 -0.105828196 -0.043754358 -0.48275703 0.009213135 0.21763606 0.100257754 -0.022849884 0.06336405 -0.11907094 0.012486651 0.08433475 0.29277152 0.4805339 0.010193626 0.06102 0.027068736 -0.000115724484 -0.059044737 -0.047035087 0.2203383 0.07492656 0.07341745 0.040340126 0.022095542 -0.052889735 0.22803834 -0.21235597 0.09656138 -0.10609589 0.050552707 0.26272276 -0.5596182 0.4555456 0.10048583
18_10097 -0.26339018 -0.18821114 0.031882025 0.21957095 0.103655815 0.13183437 -0.13790372 -0.26767582 0.19292545 0.19142757 -0.30927446 -0.24741828 0.057429302 0.39401558 0.13192736 -0.35521644 0.051840153 -0.06555594 0.023969205 0.17619328 -0.023875771 0.09940439 0.08246961 -0.20126864 -0.15487507 0.04268143 0.01415517 -0.47166175 0.032549847 0.13091342 0.41486028 -0.13543877 0.02961934 -0.19907978 0.10320334 0.06098003 0.30177134 -0.06804449 0.23841088 0.07176653 -0.48224872 0.42977104 -0.045483474 0.24280527 -0.35645565 -0.21897046 0.012003944 0.093253404 -0.393266 -0.2066076 0.15332404 0.15478212 -0.1403298 -0.1593816 -0.14959529 -0.260404 -0.14941582 0.0899321 0.35214984 0.19022673 -0.15173046 -0.41254547 0.1377277 0.475801 0.009395082 -0.21376695 -0.40349954 -0.37989503 0.07298387 0.29208612 -0.12872046 -0.19031554 -0.38618127 0.087524526 0.19217001 0.21254787 0.17242879 -0.094463415 0.099366955 0.23018698 -0.102576606 -0.40569225 -0.25006837 0.14576143 -0.12803005 -0.061717086 -0.009868123 -0.05232609 -0.37460202 -0.108563416 -0.50563794 0.23286514 0.14047477 0.49808723 -0.07106346 -0.04004848 -0.98606807 0.088194445 0.22939569 -0.08818694 -0.019334957 0.023221709 0.14989108 -0.31574032 0.18241583 0.19841686 0.31422645 -0.051116824 0.8683572 0.19125843 0.30038714 -0.068217136 -0.05703336 -0.31683642 0.026869379 -0.07356659 0.4155169 -0.16898611 0.17057015 0.1762239 -0.24542007 -0.10403973 -0.63971746 -0.23916064 0.14618209 -0.4362189 -0.05586191 0.40385
18_10093 -0.36237037 -0.044246994 0.24985212 0.2933848 -0.1729347 0.37080607 -0.06810462 -0.3399232 0.0007288336 0.17529126 -0.255692 -0.39311418 0.080702215 0.5826694 -0.41996282 -0.14740087 -0.15089647 -0.07521401 0.2278648 0.21551092 -0.07927404 0.40234667 -0.07024553 0.06223543 -0.12781192 -0.081217825 0.23015264 -0.19664316 0.3004764 0.21930689 0.13657196 -0.08200406 0.17177376 -0.07173747 0.17150888 -0.08850308 0.090957224 0.015917368 0.21767285 0.00062029995 -0.46519256 0.60312355 -0.054630738 0.15797286 -0.07619479 -0.1862233 -0.07650324 0.1500364 -0.5746319 -0.15347597 -0.06858018 0.08832084 -0.15438205 -0.28181708 -0.030259224 -0.13734378 -0.13689478 0.04671905 0.41851205 0.16860004 -0.2989201 -0.41848743 -0.043464605 0.53672814 0.01291296 -0.38556492 -0.17850938 -0.31159094 0.21710451 0.12450913 -0.08123622 -0.17854996 -0.37711918 0.23698942 0.32540172 0.37123945 0.1087288 0.049083907 0.29824814 0.06692491 0.0786028 -0.4876353 -0.06258614 0.29438615 0.0051864777 -0.17876509 -0.15549381 0.04858367 -0.2270973 -0.1221785 -0.43350098 0.43582985 0.15239462 0.40311307 -0.089911565 0.03798699 -0.849511 0.14236525 0.4351655 -0.36962238 0.07420702 0.034382906 0.12630342 -0.15241419 0.12253924 -0.029548062 0.36659068 0.0851583 0.80804217 0.24621487 0.12565352 -0.07328812 -0.00396183 -0.3787288 0.18220821 -0.15491703 0.40097833 -0.2430395 0.0030553988 0.2603477 -0.19933681 -0.02310862 -0.5131761 -0.32863352 0.04268303 -0.43247053 -0.12025657 0.108557984
18_10101 -0.25457987 -0.24437349 0.08242994 0.070020944 -0.048098117 0.14592296 -0.1599249 -0.49981293 0.15300268 0.27608424 -0.3275633 -0.27458572 0.15748182 0.5854372 -0.020765653 -0.27125672 0.1261899 -0.15057458 0.1744225 0.19827414 0.05077165 0.28518885 0.21959761 -0.05319971 -0.1950302 0.15476564 0.27622283 -0.41300786 0.04316169 0.34631637 0.3379403 -0.14966549 0.24164502 -0.26417848 0.23687622 -0.30988416 0.27623558 -0.14890432 0.20084232 0.06397512 -0.42837116 0.6216434 -0.076025605 0.37629116 -0.18645856 -0.17176786 0.027501184 0.0795938 -0.37205443 -0.34242642 0.21991098 0.23183817 -0.028389864 -0.24671318 0.02832998 -0.34070683 -0.18125893 0.09822859 0.34822953 0.16415498 -0.10474178 -0.29029173 -0.08893287 0.3278368 0.17697832 -0.2680772 -0.39787117 -0.33893946 -0.057001308 0.23488253 -0.16134858 -0.12137663 -0.2060882 0.34874168 0.20932887 0.2796261 0.14655505 -0.19419253 0.19887492 0.3817451 0.048733655 -0.249346 -0.22567108 0.10371133 -0.032066736 -0.16046223 -0.102329664 -0.03476409 -0.29686928 0.13929923 -0.26821855 0.27017576 0.088164054 0.43343103 0.042814434 -0.054664154 -0.9480876 0.13800928 0.39946538 -0.13270624 -0.006411486 -0.0029700776 0.117031254 -0.24503042 0.16721632 0.16332039 0.33325174 -0.045512684 0.78290194 0.23650368 0.33381626 -0.116898604 0.074358575 -0.22934967 0.20522617 0.0050847125 0.464474 -0.044468902 0.097875364 0.13097668 -0.20013466 -0.14591172 -0.61484665 -0.2877278 0.22317326 -0.3676228 -0.118049614 0.29412097
14_10094 0.12784372 0.07283597 0.093779884 -0.2065736 0.27768078 0.24218987 -0.090468906 -0.39418322 0.14243813 -0.081476614 0.22456175 -0.043813508 0.11084244 0.5811042 -0.23366247 0.07173728 -0.26861647 -0.023007195 -0.2610219 0.5433673 0.17311539 0.36603367 -0.08439912 -0.033868752 0.03589117 -0.19979697 -0.33784583 -0.076336026 0.0015639424 -0.3178552 0.2075516 -0.5720096 0.0019628715 -0.13140799 0.43170658 -0.07829524 0.21438523 -0.030735083 0.4315456 0.27039462 -0.11740803 0.19040906 -0.32073992 0.029479934 -0.1603195 0.04955863 0.10880062 -0.024419352 -0.07957354 0.002212329 0.1666022 0.109113656 -0.16449167 -0.023294404 0.15851341 -0.0070603043 -0.45156115 0.27497938 0.042998053 0.32243612 -0.18073441 0.051742274 -0.0087381285 0.5353162 0.026523443 -0.2750033 -0.2571769 -0.50708073 0.17807005 0.06986814 0.20042744 -0.22987433 -0.33655426 0.30757585 -0.20906712 0.09815135 -0.10467416 -0.030976247 -0.55694723 -0.109701656 -0.0677634 -0.17886339 -0.43885878 0.36085063 0.117164984 0.049006082 0.27464548 -0.019978102 -0.47245228 -0.51694983 -0.25665998 0.5239429 0.10927583 0.238026 -0.011093026 0.090565056 -0.72542423 0.36400926 0.5674673 -0.028823951 -0.24635807 0.11379533 0.18775797 -0.10502271 0.15975627 0.17742321 0.23124747 -0.22461006 0.52907246 0.011510726 0.22574292 0.012282193 -0.07856497 0.009909581 0.0805714 0.064625055 0.06590968 -0.27475575 -0.0696913 -0.09589773 -0.2022094 -0.22109246 -0.07305419 0.21337992 0.44416437 -0.8028527 0.35230023 -0.28644928
8_10097 -0.2100334 -0.05616499 -0.017712437 0.1874918 0.26903653 0.60143846 -0.46774465 -0.28079766 -0.114618406 -0.050947208 0.24049805 0.0032688777 0.34944996 0.38211852 -0.01617964 -0.49693605 0.06106011 -0.20337659 0.04037618 -0.052779887 -0.2756243 0.09113457 -0.40688843 0.13561848 0.0707187 -0.11331517 -0.28198925 -0.16305152 -0.14973475 -0.45619255 0.6783574 -0.13288897 0.025829397 0.19567083 0.20216013 -0.11682866 0.13021961 0.04879233 0.32223734 0.18248028 0.21458842 0.07777312 -0.48498487 0.25179982 -0.22540936 -0.09509207 -0.038750075 0.12007235 -0.32878482 0.07707277 0.0869602 0.08267694 -0.08661743 -0.08490748 -0.15551755 -0.27899724 -0.04078565 0.030475477 -0.07571297 -0.02751037 -0.12716793 -0.044387378 0.23029658 0.47118393 0.4093679 -0.06646991 0.10979666 -0.21484375 -0.04258729 0.08026622 0.50857145 0.14449361 -0.09753643 0.24324471 -0.17438559 -0.021708762 -0.08116926 -0.29409713 -0.2309551 0.5010875 -0.1594944 0.11643028 -0.05756265 0.36822224 0.66415316 -0.18048501 -0.053617395 -0.06958707 0.09399172 0.043524425 -0.47905517 0.394946 0.0051795687 0.28518656 -0.41511723 -0.04356125 -0.5495652 0.15131721 0.1449973 0.2385476 -0.099575035 0.20041433 -0.1264437 -0.24779402 0.08514429 0.09286166 0.39806497 -0.018375788 -0.019045496 0.10186975 0.028941631 -0.1662147 -0.1916881 0.4107682 0.1657161 0.022990745 0.021721894 0.009842969 0.010509367 0.15059516 -0.35529903 0.048784737 -0.3597759 -0.00075112673 0.25865376 -0.7088809 0.54081464 0.2862941
17_10093 0.009486499 -0.3386672 0.17207977 0.2691264 0.11091326 0.3096764 -0.044584915 -0.32712862 0.0010811896 0.0345119 -0.6578022 -0.22570637 -0.34956485 0.7583516 -0.412858 -0.2364673 -0.2960637 -0.22551979 0.057356734 0.0971698 0.063058496 0.39916274 0.0893961 -0.025489869 -0.11773789 0.19671401 0.045142 -0.13884634 0.21599613 0.04059319 0.15648594 -0.2908459 0.33325967 0.16301863 0.049106237 -0.22771043 0.39680597 0.15204918 0.19357397 0.044593807 -0.05071711 0.5545341 -0.013111337 0.04395194 0.1032973 -0.11679576 0.10145327 0.20002685 -0.20703015 -0.0049662255 0.22721516 0.2807964 -0.115212135 -0.14919087 0.025432216 0.103802845 0.030943038 -0.033331748 0.31715572 -0.11968324 -0.26700944 -0.21117604 0.18572104 0.27416408 0.20154165 -0.19764721 -0.36705855 -0.5587027 0.19308716 0.025027335 -0.02602074 -0.62203735 -0.3260354 0.17975064 0.2920841 0.26021436 0.19233675 -0.1378569 -0.11007718 0.16469896 -0.05545138 -0.060178217 -0.09352194 0.41171476 0.18870741 -0.3090246 0.519413 -0.13015752 -0.39101294 -0.0054159844 -0.5742884 0.298739 0.16928484 0.4399053 -0.062533155 0.11528313 -0.9153261 0.060530875 0.24033667 -0.07531261 -0.09744657 -0.08554313 0.45544413 -0.008735018 -0.11575479 -0.09680993 0.37843838 -0.07175674 0.46324247 -0.052129347 0.1835026 -0.3016622 -0.12852772 -0.11086303 0.2572796 -0.24805033 0.27111402 -0.15683734 -0.18246527 -0.055884138 0.052533954 -0.1649236 -0.47089237 -0.3308441 0.3190507 -0.30935466 -0.12644339 0.00970393
17_10104 -0.13392825 -0.33795223 0.18692993 0.18871853 0.13982396 0.3224878 -0.42556804 -0.28906187 0.041937765 -0.0032015885 -0.4529844 -0.0707734 -0.06547564 0.52961934 -0.18963924 -0.13546742 -0.1722202 -0.08088104 0.14815325 0.28583157 -0.056867488 0.3686215 -0.02482949 -0.028197855 -0.23352866 0.018264614 -0.09231493 -0.27810034 0.29330972 -0.017188229 0.16868162 -0.32071653 0.12459146 0.13087207 0.15381148 0.03741971 0.20318113 0.011466401 -0.15281534 -0.011762062 -0.17750831 0.40878916 -0.08640569 0.20584726 -0.02234876 -0.27905384 0.022659007 0.1583376 -0.42130584 -0.059422053 0.113697655 0.13588458 -0.10795538 -0.07578284 0.042497236 -0.010542404 -0.11544564 -0.068805404 0.13107425 0.026391525 -0.28359 -0.2995083 0.19805449 0.19423757 0.15965854 -0.104886055 -0.3810535 -0.41762862 0.23248135 0.25922582 0.042368874 -0.38323608 -0.28013852 0.30911434 0.077996865 -0.09849832 0.027042083 0.0084249 -0.026669161 0.24643914 0.103150494 -0.054754924 -0.30770108 0.33474544 0.00029301096 -0.26995224 0.2057101 -0.26112148 -0.4978132 -0.09631808 -0.5623481 0.29974407 0.30951422 0.5529205 -0.1352343 -0.028496647 -0.93487036 0.08498196 0.07634529 0.016505659 -0.26764265 -0.18305972 0.20754573 -0.0959737 -0.035579234 0.2284689 0.35853094 -0.049643762 0.47027573 -0.19404393 0.290633 0.040253557 -0.13026407 -0.16850121 -0.092355795 -0.22509985 0.35785064 -0.06870881 -0.030797197 0.1202502 -0.16731887 -0.21217011 -0.5317881 -0.21803632 0.2914295 -0.29141888 -0.22277506 0.04429349
16_10101 -0.13831928 -0.19328806 -0.19178687 0.11226433 0.023739498 0.10778765 -0.29255953 -0.35790357 -0.1854947 0.31062925 -0.13342181 0.008868973 0.042712282 0.706628 -0.28538164 -0.31377488 -0.039451804 -0.30732495 -0.011238423 -0.056586586 -0.032331094 0.3253721 0.15402144 0.19016972 -0.20524935 -0.058903906 0.008608341 0.068307914 0.32319155 -0.019298017 0.025079124 -0.30392867 0.16988185 0.077373594 -0.043241452 0.018212713 0.54332554 -0.017074225 0.21050964 -0.057101663 -0.26929027 0.84283954 -0.33098537 0.07495818 -0.0036292442 0.023142565 0.2851229 -0.0026715351 -0.2700337 0.1449224 0.45051196 0.03023591 -0.01609963 -0.10998077 0.23775718 0.034417164 -0.4303492 0.0886567 0.25211564 -0.07476719 -0.1463376 -0.007879306 0.1221437 0.28835148 0.33593082 -0.59357023 -0.28443673 -0.5602537 0.05435665 0.048605986 -0.035302952 -0.2766827 -0.1669043 0.46182486 0.16389535 -0.25846103 0.08880212 0.08391782 -0.17425936 0.238841 0.005506966 -0.24393803 -0.21918105 0.22841062 0.2597191 -0.21123786 0.09764018 -0.061679497 -0.30816534 -0.2920531 -0.56022656 0.5437312 -0.11191121 0.19985026 0.12029895 -0.038064826 -0.653964 0.27125448 0.37426737 0.177592 -0.02526536 -0.3343241 0.043145154 0.019599117 0.25342244 0.015429447 0.3590591 -0.14035496 0.40742996 -0.30442104 0.1839153 -0.053686555 -0.10263542 -0.24021621 0.13562047 -0.13202693 0.1507617 -0.31789452 -0.0126776565 -0.08340772 -0.13522944 -0.25186956 -0.4087039 -0.011432905 0.44511372 -0.39126873 -0.107760064 0.3613194
16_10104 -0.08174003 -0.14133798 0.05712097 0.21439864 0.2133661 0.1291181 -0.34964386 -0.34861457 0.06938867 0.24111183 -0.30869552 -0.2015354 0.030223377 0.61284715 -0.16724028 -0.38162577 -0.19922383 -0.05296663 -0.23763247 0.06577684 0.20160389 0.31078595 -0.022226239 0.053087905 -0.20212896 -0.055904593 -0.12805127 -0.028005997 0.079904094 -0.20117216 0.24663152 -0.43018782 0.16211368 -0.05179818 0.012631186 0.03265371 0.3635215 -0.057088014 0.038304523 -0.092032656 -0.14425199 0.73276055 -0.2851662 0.1156847 0.075606965 -0.043804966 0.37799957 -0.12183065 -0.5654129 0.16062564 0.28726584 0.009002109 -0.045803633 -0.04401236 0.24158514 -0.01924107 -0.15588476 0.13668068 0.13179506 -0.045787252 -0.09280197 -0.34327212 0.0945447 0.21338312 0.39245856 -0.4235982 -0.39034203 -0.6270096 0.034753416 0.23211719 -0.1695229 -0.23382407 -0.29888022 0.23285812 0.23382734 -0.14033467 -0.028240329 0.1061719 -0.4076289 0.32827976 -0.0043055336 -0.046574235 -0.27348542 0.05556333 0.39244768 -0.24174541 0.22603762 -0.14531597 -0.32702675 -0.5133184 -0.46752396 0.3914636 -0.103766225 0.39395562 0.010095029 -0.12012096 -0.52618486 0.2582086 0.083134174 -0.09887459 -0.07758644 -0.33808 0.08602534 -0.042867538 0.24368489 -0.09485452 0.29183534 -0.09105329 0.44002008 -0.32129893 -0.10641313 0.0018924242 -0.21689305 -0.10427989 -0.13196225 -0.07996076 -0.00868269 -0.22271441 0.20278697 0.070803344 -0.31033707 -0.39667508 -0.5283739 0.030357635 0.21079157 -0.3580177 0.0043757395 0.18871614
8_10100 -0.067786105 -0.03342752 0.09381102 0.25397074 0.16648373 0.42793965 -0.4550794 -0.047940925 -0.0497676 -0.10860274 0.18193318 -0.07287746 0.19454384 0.26051316 -0.056427605 -0.40219387 0.23217916 -0.046530794 0.21686117 -0.038435616 -0.239168 0.193434 -0.13608837 0.24429324 0.028806414 -0.101029955 -0.43115652 -0.09908564 -0.18360065 -0.4025497 0.52341664 -0.2991992 -0.03842853 0.010590722 0.33753368 -0.22654335 -0.08442089 0.14227086 0.42533812 0.20150727 0.16951934 -0.058753915 -0.45313308 0.3687497 -0.07888248 0.124444544 -0.064696506 0.32710502 -0.38617966 -0.049277674 0.09331292 0.1287123 0.3541259 0.030096257 -0.01984055 -0.50341827 -0.07249484 -0.123189084 0.13429768 0.08448066 -0.00030912 -0.17778787 0.19621399 0.43003622 0.17616758 -0.13594377 0.20531912 -0.06907251 -0.18221316 0.34155425 0.38555875 0.315949 0.06675655 0.39972502 0.095096916 -0.05309816 -0.09670403 -0.20666979 -0.15295075 0.62187296 -0.13826832 0.047011063 -0.10628993 0.42920884 0.58247626 -0.19901814 0.26229417 0.09180307 -0.07185309 0.2380565 -0.6225319 0.27540335 0.030640608 0.31490123 -0.16010395 0.13184412 -0.61725575 0.061316747 0.28610563 0.33321568 -0.29618192 0.36460224 -0.17716834 -0.16531621 0.040436517 0.2882381 0.52915174 -0.019952442 0.032109298 -0.15009321 0.123355806 -0.09808091 -0.069023326 0.2479578 0.1973661 0.11103264 -0.105591975 0.08634521 -0.27688658 0.15767942 -0.43112022 0.09330953 -0.32915017 0.1619016 0.563502 -0.7897305 0.49059814 0.33790424
8_10093 -0.23721822 0.04607024 -0.1570137 0.30576947 0.09510663 0.53426856 -0.43266872 -0.104758434 -0.30581746 -0.39311302 0.05414446 -0.09512131 0.20941465 0.31181404 -0.14261255 -0.5175097 -0.013186742 0.075245306 0.33534062 -0.1446501 -0.19064765 0.0131157935 -0.67935663 0.1511303 -0.013650671 -0.23211807 -0.16931579 -0.14258933 -0.33598807 -0.5716947 0.4297841 -0.37221816 -0.005800957 0.24240918 0.17471394 -0.24600568 0.02539295 0.19340357 0.39278337 0.15684217 0.24810936 0.25782695 -0.3677939 0.3575128 -0.011761942 -0.06846816 0.019541083 0.33305296 -0.27391014 0.117756315 0.10759705 0.22408354 0.08164456 -0.3148259 -0.16234629 -0.35962576 -0.27108106 -0.1529623 -0.008080378 -0.042153046 -0.2061508 -0.1081862 0.23003806 0.3856229 0.43575513 -0.038634893 -0.103878714 -0.10589994 -0.1410366 -0.06120359 0.15327366 0.16308044 -0.15076368 0.02467041 0.15493907 0.08705289 -0.102928594 -0.27111423 -0.20510495 0.36278105 -0.25197396 -0.06445548 -0.18990631 0.38573062 0.521331 -0.42743656 0.0423321 -0.14546746 -0.123268485 0.310554 -0.43711868 0.52298415 -0.1314512 0.32589096 -0.16877384 -0.08030185 -0.69000244 0.3279285 0.29960763 0.104762994 -0.26053858 0.32156402 0.025830565 0.3499956 0.052903954 -0.16340122 0.38394043 -0.13220103 0.0839079 0.049845267 0.14600615 0.010091963 -0.16829842 0.4912214 0.1088223 0.049621854 0.03610373 -0.13926135 -0.2898438 0.2216575 -0.018849665 0.098611675 -0.2765999 0.17072532 0.22277121 -0.4299818 0.4987879 0.032916132
17_10094 -0.1801807 -0.32875064 0.11630022 0.16903241 0.24219632 0.16082431 -0.263701 -0.32017666 -4.463109e-06 -0.11121019 -0.15147486 -0.05244811 -0.035001587 0.49712986 -0.18314432 -0.24432382 -0.26903996 -0.13264482 0.12605694 0.32605723 -0.14595468 0.23493424 0.056313988 0.037374485 -0.17756186 0.09026943 0.04440153 -0.38273212 0.40984428 -0.08779851 0.2142439 -0.43431222 0.46296266 0.30570424 0.4077391 0.1280293 0.50140357 -0.16115446 -0.07137324 -0.07158096 -0.08641438 0.47444117 -0.22558437 0.14110322 -0.09233097 0.04712521 0.18333331 -0.03791033 -0.11173941 -0.09556455 -0.14570953 0.09643472 -0.08474954 -0.043623354 0.23906651 0.038460035 -0.2192124 0.21040606 0.25515357 0.11941205 -0.12979414 -0.15850087 0.33292267 0.29657027 -0.024678208 -0.31520036 -0.15151867 -0.51927716 0.08723537 0.18857749 -0.06613455 -0.21940303 -0.32869092 0.24812087 -0.005567342 0.15114602 0.06521299 0.029358437 0.011755342 0.16340558 -0.13694356 -0.24505916 -0.18051063 0.14810021 0.09464416 -0.26443568 0.3071599 -0.037381727 -0.5877361 0.14308058 -0.59226876 0.21404736 0.29703096 0.5245662 0.09088776 0.07735907 -0.9188419 0.0042636003 0.0953317 0.04444318 -0.17696925 -0.30729225 0.24840993 0.046236582 0.0055304463 0.4250571 0.10869439 -0.054696012 0.5640442 0.08670911 0.0032090454 -0.024732051 -0.28523597 -0.37095138 0.18155602 -0.311322 0.43349648 0.10240046 -0.17462634 0.084984675 -0.04229753 -0.2520726 -0.4672597 -0.1434171 0.4213416 -0.34245858 -0.14290352 -0.095516466
14_10103 0.08349935 -0.1931457 0.062465418 -0.0044394406 0.26912254 0.23583168 -0.10871711 -0.22000824 0.22018223 0.03371652 0.1035929 -0.102742985 -0.030603472 0.6335006 -0.0793621 0.041356325 -0.13815899 0.048753824 -0.34727597 0.40610155 0.020601029 0.2099494 -0.19828975 0.04389297 -0.057263874 -0.27168843 -0.3676565 -0.056138054 -0.021204699 -0.45393243 0.3999254 -0.5768716 -0.098043 -0.25444666 0.3208903 0.06341686 0.121662125 0.020739894 0.37647033 0.21379302 -0.14743197 0.16128667 -0.36833432 -0.018929664 -0.1356978 0.035166193 0.10713175 0.03445599 -0.098594986 0.049908258 0.3722538 0.20244361 -0.08215744 -0.14948007 0.13938631 -0.09141821 -0.47799656 0.03416494 0.059314538 0.27222484 -0.24753942 -0.08847696 -0.06260572 0.46716645 0.18100528 -0.41284034 -0.43579534 -0.73576033 0.20644644 0.22858067 0.26091927 -0.32139692 -0.29539716 0.16699946 -0.039274856 0.043476015 -0.23466615 0.03960647 -0.4938868 -0.13012774 -0.06959623 -0.1076013 -0.3870479 0.41534975 -0.0015598187 -0.043801468 0.3643011 -0.14113815 -0.56931376 -0.47676226 -0.24851058 0.5912225 0.14198016 0.36497262 -0.12773828 -0.045061123 -0.73042804 0.5216516 0.6614749 0.04818162 -0.25379667 0.15943201 0.3409715 -0.042694166 0.1837827 0.18820047 0.28441444 -0.17051224 0.60069853 -0.19548552 0.21467763 -0.03232682 -0.028023329 -0.07003422 -0.026774878 0.016701924 0.3624887 -0.32748577 -0.009476471 0.056215405 -0.43331397 -0.20456603 -0.3165693 0.18650337 0.3781861 -0.85266095 0.26288325 -0.18206835
12_10097 -0.15009116 0.016388867 -0.038162306 0.20820357 0.021466881 0.3912707 -0.63561183 -0.012597861 0.020048762 0.015934896 0.32642505 0.08167802 0.16660234 0.70823085 0.064660676 -0.25496522 -0.012632339 -0.19788536 -0.03359709 0.34710187 0.1883776 0.24224192 -0.40483 -0.093238294 -0.28233412 -0.18909356 -0.17943239 0.035051104 0.0028848911 -0.090719946 0.5411767 -0.6500852 -0.15624869 -0.32342547 -0.1734185 -0.028399868 0.21898876 -0.10749517 0.22315422 0.23257776 -0.11327835 0.16395053 -0.31610125 0.16760002 -0.07060192 0.07810961 0.09918752 0.25192347 0.0026051924 -0.022403454 -0.12806322 0.44295827 -0.02898185 -0.14136747 0.09715443 -0.06424752 -0.13204603 0.39540994 0.13493897 -0.0500079 -0.1626725 0.09048326 0.2345498 0.525756 0.5705581 -0.48653823 -0.0016860772 -0.7146171 0.02412707 0.18685415 0.30026174 -0.3528159 -0.052128747 0.25076658 0.26593184 0.24681057 -0.19965403 0.008322863 -0.48837122 0.121890865 -0.20867553 -0.2527011 -0.26080474 0.684477 0.19961141 0.059300516 0.05025126 0.318459 -0.24436592 -0.2836788 -0.15666904 0.35701808 0.10606012 0.25427252 0.12479842 -0.18074815 -0.652113 0.52943826 0.08048303 -0.13625309 0.049991656 0.13359587 0.11600191 -0.21959326 -0.26819098 0.17308885 0.5500613 0.08711305 0.4489851 0.09421846 0.12833796 0.31546187 -0.095825374 0.003978637 0.17630497 0.011181258 0.11551511 -0.07063918 -0.2485095 0.308382 -0.16851132 0.14177954 -0.07927491 -0.086370096 0.25713298 -0.44232577 0.110406004 -0.14033662
11_10101 -0.048709568 -0.020447237 0.010244578 0.04842828 -0.00876639 0.19951738 -0.49818704 -0.025687508 -0.0030062988 0.30648163 0.39496928 0.119587794 -0.02605022 0.46491992 -0.06476911 -0.4160317 0.06400164 -0.06831579 0.052492198 0.17954935 -0.0845501 0.18349871 -0.24755666 -0.13786818 -0.6167697 -0.21388924 -0.037261974 -0.08403285 -0.057650127 -0.25074807 0.42886326 -0.38040406 0.0886507 -0.11217732 -0.07878196 0.06067807 0.22961436 -0.11212629 0.26179212 -0.04839072 0.06007259 0.24074782 -0.50725675 0.27196473 0.09409181 0.033614434 -0.30007112 0.24018104 -0.24923778 0.24788626 -0.25901225 0.48891965 0.15191482 0.15065542 -0.040192515 -0.13325094 -0.17218362 0.16371398 -0.044569355 -0.3624794 -0.08071389 0.23417652 -0.003201031 0.25672156 0.2506129 -0.51769817 0.17000715 -0.4658463 0.22156551 0.067662425 0.35164714 -0.20093642 0.057414442 0.17692438 0.26561525 0.2724829 -0.17019972 0.1094057 -0.4106067 0.3462973 -0.17560902 -0.051972628 -0.39984453 0.12560338 0.25120777 -0.07649838 0.12829845 0.13178544 -0.11154705 -0.03244759 -0.37894657 0.33644083 0.24522862 0.3216307 -0.0280622 -0.36352023 -0.6053659 0.24637334 0.3646412 0.18949956 0.074987784 0.22769123 0.3222363 -0.1623896 0.099081665 0.3321956 0.5572197 0.12447611 0.34271225 -0.09291599 0.05925363 0.40592155 -0.17913912 0.1951632 0.14832301 0.14302684 0.11887884 0.12921277 -0.34608945 0.1324293 -0.07366891 0.01582041 -0.17275783 -0.16175884 0.3183011 -0.32735455 0.20942844 0.20943296
12_10093 -0.06410519 -0.103369474 -0.10576264 0.23326038 -0.053603027 0.49159893 -0.3867176 -0.011056321 -0.12714921 0.08182285 0.30356455 0.0051126303 -0.30497962 0.61200213 -0.25390792 -0.11294686 -0.2295054 -0.18331641 -0.11571831 0.39505765 0.19568843 0.33083722 -0.41253072 -0.015364762 -0.4218363 -0.1767595 0.06023164 0.11977803 -0.008997544 0.06988788 0.424091 -0.47132948 -0.01562841 -0.2629139 0.12170945 0.0058898297 0.15732513 0.038304944 0.435375 0.09220197 -0.24077842 0.2815644 -0.26186395 0.32243526 0.03320751 -0.0033067295 0.017135385 0.21852438 -0.2336788 0.20983024 -0.26003933 0.3096195 0.12301073 0.023167146 -0.23248953 -0.14906673 -0.0025876258 0.07369827 0.23150213 -0.10373414 -0.15794474 0.30258387 0.21320705 0.5175885 0.47513658 -0.34878016 0.17591226 -0.45733178 -0.07705092 0.26799908 0.007152761 -0.30363017 -0.29294983 0.195913 0.20032616 0.45146513 -0.25549567 -0.065516725 -0.338555 0.22650903 -0.09681267 -0.05667407 -0.24766263 0.44436628 0.096491165 -0.069766186 0.14558548 0.2844641 -0.31084776 -0.4924144 -0.20089746 0.50945985 0.24844135 -0.09405637 0.17702186 -0.24586596 -0.5268235 0.37367103 0.24855499 0.040481612 0.060438044 0.25582045 0.21600077 -0.1812639 -0.26990822 -0.03136488 0.30099756 0.08038648 0.15250911 0.18127845 0.036608223 0.16076353 -0.18944168 0.066373594 0.25231823 0.10718165 -0.042819403 -0.20418207 -0.41361782 0.03892564 -0.19265553 -0.048584495 -0.14231409 -0.021535072 0.27910918 -0.54480004 -0.019925749 -0.33275807
11_10094 -0.04568773 0.2197666 0.16367653 0.17305157 0.27075255 0.35748655 -0.3667862 -0.4041783 0.14667389 0.18446954 0.1336115 -0.07567392 0.15538292 0.8461189 -0.2086319 -0.3995009 -0.13239738 -0.24724641 -0.022226995 0.20358281 0.08984031 0.26651776 -0.38168555 0.053953677 -0.41574696 -0.07625438 -0.057668854 0.008989789 -0.11194766 -0.16943729 0.53541136 -0.32348377 0.1666788 0.064695545 -0.13246241 0.19357623 0.36193672 -0.08570008 0.3858337 0.015563073 -0.07628275 0.082225464 -0.64343685 0.34951416 0.10996185 -0.09190378 -0.33720985 0.303597 -0.09929123 0.24270819 -0.20975249 0.39121026 -0.17696176 0.17155047 -0.041007333 0.02662832 -0.02655 0.23772912 -0.2224269 0.060571793 -0.14217827 0.0043021264 0.06707669 0.11131636 0.35123876 -0.19337995 -0.04973938 -0.4526418 -0.13664745 -0.0044708815 0.39217436 -0.1472345 0.022685524 0.24048841 0.030035831 0.24841726 -0.13249929 0.15143405 -0.3773205 0.050922725 -0.4305248 -0.22717288 -0.39140472 0.09113275 0.45775342 -0.061648667 -0.11377308 0.21480729 -0.08610174 -0.17774464 -0.4713329 0.36730477 0.030408988 0.3943318 0.0015503489 0.08817226 -0.62546456 0.53496367 0.43191206 0.16872096 -0.037483882 0.12426671 0.07682113 -0.35188833 -0.14779669 0.54760593 0.4444142 0.21481381 0.16317376 -0.07026449 -0.033306777 0.4392915 -0.14083165 0.2438839 0.15735936 0.018192966 -0.06717057 0.047505844 -0.19201164 -0.21426181 -0.06777673 0.1162808 -0.2505419 -0.11076886 0.36698937 -0.21546648 0.28411123 -0.11047358
19_10093 -0.37041944 0.13664725 0.20216295 0.110554546 0.06986615 0.35003757 -0.11536324 -0.3328637 0.30862868 0.19892664 -0.10893198 -0.16534945 -0.25837582 0.36529186 -0.23852877 -0.12994339 -0.21065302 0.09345003 -0.1647496 0.29006812 -0.0924889 0.61004496 -0.07657777 -0.22468509 -0.26711425 -0.011087776 0.07656089 -0.5750952 -0.13465281 0.1377081 0.26835054 0.01097447 0.44042233 -0.057588805 0.37595 -0.37070864 0.5977076 -0.18441258 0.438578 -0.07116564 -0.18319274 0.37803006 0.0665893 0.2502733 -0.33439347 0.031604797 0.25723767 0.26575378 -0.33898088 -0.13329302 -0.1946304 0.2279395 0.2519649 0.14282668 -0.12931529 -0.43667158 -0.2178904 0.03375707 0.39035243 -0.03270035 -0.32833508 -0.5964553 0.082293734 0.49943617 0.055547167 -0.2182241 -0.25272387 -0.26517633 0.3470262 -0.020891901 -0.20121892 -0.2182825 -0.42096555 0.21427593 -0.11654655 0.14143372 0.382575 -0.050546326 0.031843144 0.21144597 -0.15827884 -0.56480306 -0.29068434 -0.19976357 -0.14462987 -0.10224241 0.019538969 -0.16703568 -0.45986167 -0.25333694 -0.5057822 0.26863572 -0.09190518 0.12567833 0.052903607 -0.08758933 -0.724982 -0.0670465 0.22416054 -0.34906486 -0.006466361 -0.043027904 0.079564735 0.043577373 -0.07647627 -0.0018137197 0.3561951 -0.041989535 0.7415093 0.080653764 0.18502504 0.12905118 -0.15504266 -0.15045835 0.10606984 0.08411537 0.14404735 -0.3607621 0.044760663 0.124815114 0.20133638 -0.12668106 -0.71042025 -0.35983187 0.2460241 -0.61644346 -0.182237 0.06296959
9_10093 -0.17252792 -0.23052454 -0.017664045 0.3113097 0.04804073 0.41817257 -0.48412985 0.01889201 -0.19244988 0.0022434336 0.2027205 -0.10551747 0.07534889 0.33267435 -0.24691005 -0.22954609 -0.11246718 -0.084098674 0.18536247 0.11781956 -0.098722994 0.1382048 -0.42756164 -0.2063829 -0.24896342 -0.4040765 -0.1603077 0.12936069 3.16363e-05 -0.45595652 0.21938345 -0.23065752 0.28253546 0.22923523 0.16484867 0.036744434 0.25873813 0.14540042 0.1592988 0.19394867 0.20159197 0.11842678 -0.40856418 0.29040256 0.1467573 -0.23267925 0.15918194 0.00030739908 -0.24673367 0.12366728 0.042727023 -0.064794354 -0.043513034 0.15597618 -0.262297 -0.45373195 0.20023769 -0.21191904 0.059510004 -0.01280592 -0.25268608 -0.27228788 0.19789355 0.54008126 0.37796736 -0.0472046 0.25855964 -0.11526638 0.11704359 -0.29592076 0.5762781 0.17675193 -0.39364496 -0.09183906 0.37524077 0.100553475 -0.21839228 -0.121415325 -0.09548674 0.2699603 -0.252898 -0.018068347 -0.31877047 0.2283375 0.6265643 -0.26664978 0.29640362 -0.21992788 -0.13834475 0.26495808 -0.40348974 0.33085528 -0.094408914 0.15160665 -0.1651689 -0.30918625 -0.5412594 0.34271663 0.25315294 0.032420978 0.09263092 0.007210414 0.01822322 -0.10974922 0.1768198 0.013717274 0.6261433 0.115978315 0.42257428 0.22566739 -0.22470564 0.0706702 -0.30447924 0.15410855 0.12046935 0.1558502 0.1171335 0.043784358 -0.2194345 0.14134651 -0.098961785 0.20553648 0.056276664 0.10493153 0.26070493 -0.5001406 0.46691868 -0.16845626
18_10104 -0.25942317 -0.09287939 0.0282242 0.19114922 0.13262816 0.13418673 -0.07070286 -0.32135418 0.033734366 0.08362932 -0.37187266 -0.25573787 0.03210645 0.3471365 0.05118401 -0.30278432 0.09535583 -0.0032851184 0.0066049728 0.07855076 0.04716845 0.07583739 -0.046752784 -0.16775286 -0.11848008 0.12016414 0.14630981 -0.42954674 0.072170824 0.16319491 0.15115479 -0.14657377 -0.015753364 -0.14534476 -0.013108009 -0.058566406 0.3594171 -0.026226288 0.19784054 0.06548652 -0.2969553 0.4487526 -0.08174442 0.0700025 -0.3692859 -0.24393596 -0.1068453 0.19636044 -0.418884 -0.16212387 -0.012904141 0.1273968 -0.007001013 -0.20965253 -0.028146673 -0.4029763 -0.1875834 0.06041943 0.39497295 0.2449885 -0.2737125 -0.34908274 0.06206586 0.43567786 0.08451167 -0.30342758 -0.5079372 -0.43920413 0.08466709 0.20785375 -0.16999531 -0.2874337 -0.3201435 0.04276134 0.2635734 0.26823992 0.22321168 -0.03829132 0.0036142704 0.120316826 -0.0807432 -0.47810355 -0.30694693 0.14609809 -0.088869594 -0.17219274 -0.04716389 -0.1229524 -0.34976208 -0.09371902 -0.62340957 0.22389798 0.0972572 0.5840209 0.01733747 0.0439202 -0.92548835 0.11794408 0.23171315 -0.23689404 -0.12395273 -0.041979305 0.27187344 -0.22822589 0.23875748 0.064697444 0.32167995 -0.16797902 0.76872414 0.025593054 0.29913685 -0.03752315 -0.050530195 -0.15764327 -0.0035997422 -0.1262315 0.48863682 -0.16537435 0.028938148 0.16541842 -0.16491984 -0.036932815 -0.5208086 -0.1840996 0.17666264 -0.27675787 -0.03579124 0.34594667
17_10096 -0.17973971 -0.3103373 -0.0774987 0.22000462 -0.17735438 -0.007678946 0.0023596257 -0.17732283 0.13154815 0.034858853 -0.2610153 -0.062816694 -0.18444633 0.53952616 -0.31194448 -0.29385448 -0.12174523 -0.35137805 0.04986623 0.30159792 0.08550456 0.29992095 -0.015304849 6.805024e-05 -0.40837905 0.02817111 -0.0046293563 -0.13409135 0.34806606 0.06395985 0.17149965 -0.31632936 0.4246295 0.089221835 0.2901466 0.12801531 0.2455086 -0.1484063 0.096459135 -0.07123741 -0.14642568 0.6767827 -0.0042029605 0.37307522 0.021174308 -0.13343474 0.17054734 -0.061783187 -0.21502635 -0.008054211 0.25692442 0.36691377 0.016414752 -0.14423645 0.19772111 0.07312258 -0.0076531963 -0.0055320654 0.25990084 0.0010409168 -0.33822843 -0.11920487 0.045983262 0.32288206 -0.0065358505 -0.32695693 -0.15435185 -0.6814134 0.126268 0.2600804 -0.10139526 -0.31169912 -0.2418495 0.2868055 0.15363762 0.064133324 -0.11905308 -0.002888287 0.008594742 0.29965758 -0.027367404 -0.28991386 -0.24487494 0.35701776 0.10780246 -0.2496171 0.28030804 -0.051560048 -0.37931445 0.023623876 -0.60555285 0.33909202 0.064127676 0.40923995 -0.05823644 0.19063766 -0.7930678 -0.02333964 0.1485707 0.21564281 -0.18632104 -0.28203893 0.20767485 -0.070175394 0.17153016 0.18082395 0.14385556 -0.06080143 0.4967939 -0.15749216 0.16008912 -0.15983678 -0.21397363 -0.22284052 0.037581023 -0.24878767 0.22777857 0.075981505 -0.06545832 0.21775766 -0.0769086 -0.30082408 -0.73723644 -0.20632577 0.3182899 -0.36974826 -0.12715888 0.13525048
14_10097 -0.108976 0.048038762 0.03221742 0.0026159207 0.17964797 0.08360449 -0.06668508 -0.19030286 0.33291042 0.09505016 0.021215701 -0.050244827 -0.10430043 0.46593162 -0.1984401 -0.0553912 -0.23781796 0.018659139 -0.19480444 0.36820024 -0.0007188375 0.3209728 -0.1464429 -0.07638773 -0.100224964 -0.21984212 -0.27149338 -0.036569975 -0.029183967 -0.29105744 0.21550067 -0.4102391 -0.054822773 -0.2950915 0.11092554 0.008592971 0.03852057 0.02552522 0.31094465 0.21718718 -0.15878214 0.1795862 -0.28083116 -0.041831784 -0.11122899 0.003398788 -0.061134584 0.110354245 -0.090124615 0.10178067 0.39514872 0.34237656 -0.20634091 -0.036369275 0.12503001 -0.022810776 -0.28019986 -0.003284449 -0.07799752 0.15165304 -0.13877144 -0.042738184 0.041244965 0.48051727 0.26756993 -0.21051626 -0.24321201 -0.6409871 0.24624248 0.24300611 0.23173103 -0.24949934 -0.18688633 0.07462066 -0.05086848 0.015662514 -0.23991355 0.12022954 -0.66386753 -0.15774848 -0.11792459 -0.36957353 -0.32966793 0.5147498 0.21217963 -0.046701286 0.37203833 -0.03749584 -0.51125413 -0.4643718 -0.45466462 0.5117615 0.13644177 0.20126103 -0.27834913 -0.0049691526 -0.6272728 0.30746356 0.37296718 0.022644794 -0.14705947 0.086776435 0.36662775 -0.13446902 0.22371629 0.077064015 0.0129231615 -0.23364064 0.5653825 -0.22783545 0.18822445 0.0583395 -0.19448358 0.09574607 -0.02534091 -0.07150872 0.1479916 -0.035759903 -0.1618825 0.052151673 -0.30960348 -0.10696116 -0.032022767 0.037112582 0.5916366 -0.58977926 0.11817691 -0.15942694
19_10101 -0.39820874 0.25648862 -0.050992433 0.056208786 0.2156784 0.2762254 -0.03149626 -0.36206365 0.3249064 0.27875304 -0.09210895 -0.1053054 0.093830116 0.35681862 -0.17523956 -0.27465805 -0.0121986205 -0.043335307 0.123142555 0.37508756 0.0028985217 0.567795 0.24629314 -0.078763925 -0.15587644 0.008641173 0.22800803 -0.511959 -0.04348466 0.21664776 0.18326813 -0.12848336 0.5676266 -0.18440235 0.16403013 -0.45467746 0.38478267 -0.22348736 0.22163448 0.1969399 -0.09770566 0.65486354 0.021412503 0.12960558 -0.08055301 -0.24896814 0.23883821 0.09792484 -0.2520254 0.02132243 0.016175734 0.18874423 0.12811567 0.045741502 0.006090001 -0.6395835 -0.25410336 0.090162866 0.15614696 -0.12710561 -0.25237545 -0.44055393 0.03666518 0.48631358 -0.042709365 -0.2378836 -0.2954099 -0.17409067 0.3167396 -0.000496262 -0.078726806 -0.30386916 -0.48605952 0.35347745 0.07406392 0.21811347 0.1344165 -0.072872736 0.19882303 0.15776038 -0.09307284 -0.4946383 -0.58978146 -0.075918354 -0.081674784 -0.21231642 0.00096908765 -0.09164501 -0.2521824 -0.0893655 -0.6842494 0.28823808 -0.0083879875 0.2570474 -0.30497637 0.059740264 -0.62476015 0.018673882 0.36634326 -0.21334836 0.005694074 -0.30885658 0.046856873 -0.13523765 -0.03593478 0.07076761 0.24026322 0.1996832 0.5295112 0.06910346 0.389436 0.009986021 -0.029172456 0.0041072625 -0.10313704 0.03668554 -0.055674568 -0.122845985 0.20024712 0.12958962 0.12590204 -0.03689258 -0.55846465 -0.20909813 0.19255182 -0.42224988 -0.07784698 0.118700095
18_10096 -0.05121924 -0.1730137 0.09748924 0.13476838 0.079460524 0.21655786 -0.13483803 -0.4472961 -0.036003355 0.20240171 -0.2797463 -0.28204185 0.04072808 0.5441828 -0.09206631 -0.3246361 0.12403939 -0.2342439 0.17468642 0.19944625 0.048408043 0.4196588 0.12309466 -0.018499766 -0.15777697 0.041923817 0.29809004 -0.45621973 0.16117744 0.1388137 0.27079666 -0.10597125 0.33903003 -0.1908325 0.11081095 -0.32282922 0.44157338 -0.2590151 0.19416209 -0.0067910072 -0.41637835 0.6913886 -0.1065325 0.23658246 -0.26695487 -0.23451339 0.038488563 -0.009547079 -0.2754876 -0.16946338 0.047890965 0.18416135 0.08123024 -0.17325376 -0.02166218 -0.29619527 -0.22993557 0.11158397 0.44721997 0.16388066 -0.16772683 -0.33998463 0.09736473 0.40407994 0.045899116 -0.3240882 -0.2532274 -0.28683403 0.13363129 0.25468123 -0.21557797 -0.20251676 -0.31124428 0.39166802 0.114594996 0.18199912 0.18783902 -0.13591515 0.08608675 0.30894116 0.08003655 -0.2242428 -0.13548665 0.15524676 0.032472737 -0.24313597 0.013526378 -0.135974 -0.17095569 -0.018587986 -0.2562315 0.22627698 0.112938054 0.36030313 -0.022888748 -0.051433686 -0.800528 0.1390814 0.105094664 -0.16957463 0.09306532 -0.08212439 0.39587128 -0.113067284 0.34888348 0.13260478 0.30560842 -0.07290844 0.83119035 0.045574415 0.4019872 -0.10950099 -0.008174671 -0.06277754 0.27509087 -0.22707602 0.5233834 0.049763754 0.06155085 0.22142045 0.039624177 -0.08640752 -0.3972037 -0.26324442 0.22107139 -0.41434824 -0.093972795 0.1965458
7_10094 -0.10933719 0.13847202 -0.295109 0.409666 0.036316577 0.39896554 -0.2802786 -0.21320666 0.068245776 -0.11703449 0.253199 -0.08193154 0.1758894 0.3191578 0.014693019 -0.55420667 -0.09744886 -0.06745543 0.08442432 0.088385 -0.14858885 0.030111382 -0.0885479 0.017157586 0.04922295 0.11498216 -0.23090146 -0.10552065 -0.27528712 -0.67372257 0.34437284 -0.108246855 0.016503757 0.03615666 0.38833427 -0.20131157 0.044761248 -0.18056093 0.24165073 -0.029766979 0.01907047 0.11717754 -0.45097923 0.1763359 -0.50304174 0.27310848 0.35491434 -0.45462885 -0.2631104 0.13708839 0.33499193 0.38681024 0.015875418 0.017731827 -0.24191192 -0.28226805 -0.0003915533 0.042473305 0.34905374 0.33411014 -0.12138219 0.052990478 0.11155456 0.22856103 0.2687084 -0.08184133 0.42670727 -0.16474631 -0.060380347 -0.14214058 0.23332351 0.25727224 -0.046611533 0.513022 -0.07806629 -0.05221649 -0.5614438 -0.031662524 -0.3250842 0.25568017 -0.23885477 -0.11156393 -0.063728064 0.36724344 0.6753998 -0.2707383 0.1565233 0.1311261 0.104354605 0.35587633 -0.52755773 0.46901396 0.041765586 0.4487812 -0.14104842 0.14029603 -0.656192 0.002694831 -0.2244599 0.25431272 -0.26810747 0.2761962 -0.032513976 0.023146672 0.12608123 0.25472984 0.61709595 0.09883174 0.3337643 0.38250363 -0.123714015 0.17243211 -0.01726988 0.24821231 0.12206672 0.16835307 -0.016485186 0.2830493 -0.046082467 0.41271657 -0.10598884 -0.12779045 -0.0064674034 0.19863015 0.29210797 -0.42730483 0.4145277 0.11057596
14_10101 -0.11322319 0.08076601 0.0974779 0.014122986 0.03218443 0.11440123 -0.071920075 -0.4439915 0.1421566 0.10662669 0.0110721635 0.12227977 0.028884904 0.5145818 -0.2692643 -0.26315007 -0.1196838 -0.014221674 0.06140917 0.34814668 -0.023371808 0.3804452 0.019737367 -0.07530245 -0.05665051 -0.119202524 -0.12511438 -0.11081112 0.14794146 -0.21081321 -0.14980887 -0.57316464 0.115438476 -0.2565012 0.112094045 -0.20064113 0.08668422 0.09561708 0.31867462 0.2803537 -0.08929385 0.45254704 -0.19635068 -0.15014042 -0.030691843 -0.08876936 -0.07093135 0.059566475 -0.12612222 0.10819371 0.23255867 0.28344002 -0.08453586 -0.059306297 0.16915433 -0.06265963 -0.24453345 0.14808556 -0.039991584 0.1889486 -0.24295226 0.15390503 -0.11929764 0.5646127 0.18550004 -0.38063377 -0.16581538 -0.6702214 0.29788724 0.24000522 0.14634624 -0.17461717 -0.085230954 0.25332788 0.1897046 0.10086811 -0.1508836 -0.008691095 -0.6418757 -0.10720996 -0.05421162 -0.16027711 -0.29589188 0.34516403 0.29781535 0.01900543 0.30922416 -0.0096435305 -0.32645723 -0.26599848 -0.5085275 0.28871664 0.18936081 0.06628797 -0.019359404 0.013562691 -0.4775214 0.23224972 0.46922654 -0.071067676 -0.08720954 0.054951042 0.41408223 -0.18767366 0.39962867 0.07339689 0.10391856 -0.1640198 0.44195035 -0.04508539 0.14893101 -0.038862728 -0.091443904 -0.010567351 0.0919864 -0.05314664 0.23504426 -0.012187132 -0.39203823 0.039629135 -0.3493292 -0.0029049327 -0.028283877 -0.005826022 0.6222982 -0.35277942 0.026975341 -0.19941127
19_10096 -0.34970036 0.3178931 -0.07550666 0.120894015 0.157557 0.2623388 -0.111683026 -0.33037782 0.21992578 0.16354798 -0.20553224 -0.18249924 0.13091248 0.33256668 -0.08718663 -0.33147064 -0.075223744 0.03687944 0.0935349 0.3494073 -0.05614404 0.55535066 0.16735175 -0.13194503 -0.1104318 -0.034295786 0.28794104 -0.5040722 -0.056886002 0.018101139 0.17811973 -0.23798145 0.24555442 -0.21336803 0.035407837 -0.42220417 0.33640313 -0.33122644 0.07199152 0.29491878 -0.14501156 0.53532064 0.029008731 0.08692638 -0.1568056 -0.124990255 0.25688028 0.22424598 -0.38911843 -0.118198074 -0.131931 0.099741824 0.23443964 -0.047700517 0.13766812 -0.60998726 -0.10790873 -0.08294457 0.20070942 -0.011513363 -0.24954979 -0.3068872 -0.22009246 0.31040967 -0.045683008 -0.21537937 -0.31195107 -0.31958398 0.20269497 0.085513555 -0.013004085 -0.29635438 -0.31617033 0.22219157 0.07683995 0.2872851 -0.047165796 0.03624138 0.18121088 0.107014 -0.036300153 -0.51343226 -0.24327084 0.06003459 -0.103659615 -0.14839436 -0.057435907 -0.03140497 -0.50852346 -0.055823576 -0.5738611 0.18277006 -0.08616572 0.46352723 -0.09031864 0.20059274 -0.68983483 -0.016051158 0.16690876 -0.2844083 -0.08814501 -0.1599058 0.16382764 -0.14029801 -0.11511891 0.06346976 0.19643113 0.17776471 0.504199 0.03805976 0.1360672 0.043565705 0.074216194 -0.120891295 -0.08786289 -0.018317297 0.12892714 -0.05105921 0.14483422 0.25814644 -0.054610774 -0.080382854 -0.5282743 -0.2982587 0.14767407 -0.49577585 -0.14854015 0.04365502
7_10096 -0.1749872 0.16936006 -0.2045097 0.29389733 0.07318063 0.3828396 -0.12436578 -0.4485109 0.1043262 -0.14116324 0.21477695 -0.03397063 0.21860044 0.4122837 -0.030650197 -0.41293693 -0.07776503 -0.036390264 -0.052998323 0.03591538 -0.058424633 -0.079003945 -0.19649047 0.018036438 0.045102928 -0.08046925 -0.22222398 -0.009589903 -0.21565256 -0.68332195 0.4033695 -0.04563964 -0.01014798 -0.04017285 0.4707969 -0.44342527 0.06852957 -0.008586042 0.24023694 0.028092032 0.08970246 0.14472084 -0.56272054 0.16180065 -0.3896508 0.17138895 0.31592694 -0.09994307 -0.36695826 -0.105560295 0.45211938 0.3000543 0.19489871 -0.08137029 -0.3986144 -0.17952982 -0.12903486 -0.05184061 0.31540838 0.14786571 -0.1554016 0.02880417 0.08819209 0.40929767 0.39286605 0.08594099 0.4269283 -0.22192796 -0.12732948 -0.030879248 0.26134306 0.2786998 0.026146019 0.5437402 -0.050057247 0.043308415 -0.26779282 -0.16261671 -0.28140882 0.45358428 -0.21329856 0.058360465 -0.11678982 0.3172585 0.65423006 -0.1340496 0.22021513 -0.05732815 0.1557067 0.41806513 -0.8019283 0.51774925 0.058073442 0.44638693 -0.24151796 0.10169073 -0.620172 0.028448783 -0.1455565 0.2860762 -0.033537064 0.45660296 0.032097526 -0.2686666 -0.054340247 0.031732924 0.5365182 0.097805746 0.13800864 0.60457855 0.13605383 0.18259974 -0.16277637 0.054844115 0.2728983 0.121554464 -0.08514366 0.36286163 -0.2163813 0.58533967 -0.1666629 -0.25233898 -0.115941696 0.031270746 0.27571452 -0.418993 0.26649696 0.21613431
18_10094 -0.3932071 -0.011705629 -0.007108826 0.20481583 0.21985297 0.42827603 -0.19809313 -0.28898996 0.025539823 0.17887135 -0.27951056 -0.19313097 0.06532719 0.43831947 -0.057481505 -0.43815988 0.026472121 -0.10567746 0.23839349 0.17693263 -0.22136247 0.32045162 0.093129225 -0.19000553 -0.15169047 -0.12312096 0.2060265 -0.4935725 0.28070235 0.10669787 0.38836277 -0.08658136 0.046190478 -0.14455763 0.06970006 -0.0067802737 0.41029403 -0.08338506 0.06841114 0.10587702 -0.24244328 0.7963999 0.027586227 -0.07051253 -0.36015287 -0.3161996 -0.049235668 -0.06585752 -0.21867895 0.005869708 0.034097493 0.013046733 -0.24641415 -0.14201748 -0.24931082 -0.30329183 -0.29085103 0.14173242 0.2720401 0.1554756 -0.18793103 -0.26366606 0.36181617 0.28296298 0.06899435 -0.4070277 -0.25272685 -0.3340376 0.12243036 0.43188983 -0.027845273 -0.20444863 -0.25274545 0.18834206 0.019208146 0.1618045 0.23732302 0.005160096 0.23923548 0.19901566 -0.12762147 -0.3633679 -0.1585917 0.08539937 -0.11334886 -0.12522687 -0.059566785 -0.12143398 -0.15859887 -0.20293151 -0.5690297 0.4043696 0.25498986 0.37566838 -0.064236306 -0.043342236 -0.7468585 0.10790903 0.33904102 -0.10271551 -0.03152335 -0.03836816 0.32583874 -0.13422073 0.4084697 0.36320522 0.21947241 -0.11190381 0.7458172 0.0074377945 0.25672573 0.045503642 0.06997006 -0.121812254 -0.026612557 -0.35968807 0.5330827 0.031181538 0.11646456 0.036347467 -0.09379141 -0.014849195 -0.44851178 -0.2724205 0.21310562 -0.61853564 -0.039285243 0.2877349
10_10093 -0.10188997 -0.049836535 -0.23096724 -0.004627261 -0.046769716 0.27776086 -0.20169896 -0.28257656 -0.46310136 0.35489163 0.22932087 -0.027413659 0.22205082 0.59760845 -0.27868217 0.0068308217 0.20380397 -0.2778734 0.10780925 0.15788007 0.12139497 0.16948135 -0.50927794 -0.13771111 -0.31953982 -0.031243913 0.4682462 0.26347476 0.10919201 -0.20332363 0.3214717 -0.4673862 0.22556773 0.34217522 0.078985505 0.024120966 0.14337415 -0.12803064 0.370239 0.22077928 0.09060818 0.11804621 -0.6597443 0.047660988 0.001524351 -0.418618 -0.109355606 0.30100924 -0.13864973 -0.014528109 0.24998005 0.4304281 -0.3436677 -0.07113323 -0.37511352 -0.50310045 0.026629496 0.15589592 0.016052315 -0.28752646 -0.22823957 0.06542913 0.05586986 0.4255184 0.32586837 -0.31484005 0.15533938 -0.158907 -0.00075583893 -0.009690061 0.3316293 -0.1065268 -0.13138443 0.040297527 0.06961404 -0.06933322 -0.06586492 -0.28404173 -0.29057923 0.14308444 -0.25686568 -0.33687773 -0.46947047 0.079506956 0.6890849 -0.026955025 0.2160847 -0.044899818 0.019894565 0.07113157 -0.8588502 0.55328184 -0.07230325 0.26973772 -0.037244584 -0.19893113 -0.4888603 0.1656913 0.31788042 -0.12283887 0.12062667 -0.02364832 -0.070289835 0.035481457 0.030735862 0.17204085 0.5661632 -0.14005646 0.27714834 0.14120296 -0.26571032 0.11079018 -0.15186888 0.15878531 0.18842523 -0.032108 0.08176495 0.2233531 -0.31757945 0.24968068 -0.074166104 -0.025934054 -0.10039243 -0.19115557 0.45342094 -0.4192365 0.28534162 -0.09581261
18_10106 -0.19579531 -0.00777792 0.1403752 0.14981925 0.014701593 0.2489954 -0.10126003 -0.423972 0.0696491 0.25603724 -0.3455773 -0.42903548 0.0754076 0.55970025 -0.14102934 -0.20098077 0.09819035 -0.20402378 0.16486214 0.19098645 -0.060780954 0.36994222 0.042587448 0.019061238 -0.11369038 0.020083765 0.30741182 -0.3545921 0.20341504 0.26290128 0.35195243 -0.06810069 0.18282558 -0.2123219 0.05704499 -0.22088961 0.26761577 -0.09211877 0.24358283 -0.11023067 -0.50048286 0.7291773 -0.06552177 0.11623032 -0.22488895 -0.26481143 -0.05061167 0.061336096 -0.37446204 -0.15543592 0.041304395 0.1297576 -0.02413959 -0.29292542 -0.056670558 -0.24640885 -0.30990788 0.13431701 0.41844812 0.21460436 -0.18072352 -0.42841494 0.10465719 0.4732881 0.116249375 -0.34180224 -0.23537098 -0.29237723 0.16911003 0.24148038 -0.22735783 -0.21246678 -0.2929158 0.37446207 0.13872361 0.31190747 0.26706815 -0.09997705 0.14083354 0.26781934 0.101658694 -0.42010498 -0.1766368 0.15234053 0.08924407 -0.26671234 -0.192031 -0.076890275 -0.119698614 -0.15833682 -0.3787803 0.46445242 0.111871056 0.441542 -0.20049475 0.0070379335 -0.789593 0.13265096 0.19874834 -0.3864739 0.08127347 0.0005696009 0.20491178 -0.20694047 0.23722047 0.06696172 0.37622857 -0.08067728 0.9413558 0.08270893 0.40242955 -0.03801918 0.023420544 -0.07216546 0.1552453 -0.15325305 0.38928354 -0.049493957 0.14479548 0.2864602 -0.09818696 -0.041695904 -0.4227165 -0.32721755 0.1365452 -0.4547264 -0.07923881 0.28360435
12_10094 -0.052884962 -0.013049198 -0.25063828 -0.15018766 0.08314114 0.22962378 -0.53984165 -0.0056883465 0.13021606 -0.18330923 0.08029783 0.0683299 0.215321 0.48138157 0.057181913 -0.11718133 -0.19793229 -0.18675601 -0.09503578 0.50119156 0.21014355 0.46400565 -0.39703467 -0.07314099 -0.2770718 -0.23861836 -0.20394212 -0.04862043 0.16900909 0.10273836 0.33428168 -0.35748634 -0.05864952 -0.23756091 0.12749201 0.07377347 0.2518588 -0.11362198 0.14274174 0.2329519 0.04681994 -0.019216629 -0.25273973 0.31616563 -0.10694517 0.10509743 -0.031008758 0.13408956 -0.13390012 0.13654637 -0.107928604 0.6142174 -0.10889233 -0.29791558 -0.09159708 -0.10967195 -0.22579649 0.5139484 0.064408496 0.1351957 -0.19952059 0.11938685 0.25987172 0.46792606 0.2792018 -0.44600606 -0.10480324 -0.6139846 0.050398253 0.2533935 0.32559532 -0.18254782 -0.029248407 0.26532674 0.012156388 -0.011143615 -0.3166477 0.19492729 -0.34924823 0.29294908 -0.2544909 -0.24695206 -0.43675804 0.5853703 0.1957336 0.029581888 0.049826946 0.30392018 -0.20787868 -0.1746054 -0.38869622 0.52903664 0.09481716 0.16218542 0.11403307 0.0049711997 -0.6840423 0.507725 0.109070286 -0.06096001 0.014510259 -0.009858216 0.15415898 -0.0657312 -0.07845888 -0.037930217 0.47531042 0.04010886 0.23787239 0.13903251 0.18817055 0.39379272 -0.051395413 -0.023649657 0.4099203 -0.106970735 -0.0442503 0.16339304 -0.22257307 -0.18088654 -0.16524436 0.08755624 -0.2564461 -0.1144973 0.31548858 -0.13461311 -0.0041948585 -0.2557691
11_10093 -0.010534858 -0.03449203 -0.19726582 0.16381657 -0.007065494 0.35538182 -0.09837275 -0.2268266 -0.15684319 0.18533428 0.33259517 0.09973246 0.02778979 0.6357901 -0.08111706 -0.39339334 -0.0113184815 -0.3027614 0.06977741 0.20329796 -0.015384403 0.3703525 -0.29444572 -0.10358682 -0.7160111 -0.20105594 0.09901728 -0.35013962 0.054548573 -0.43833038 0.6325697 -0.2741403 -0.03086043 0.03138532 -0.17528957 0.1590441 0.2882154 -0.03992168 0.38744286 0.3099877 0.06314874 0.21981342 -0.60028833 0.35401133 0.24244829 -0.27444917 -0.25432736 0.3749155 -0.07365899 0.058489364 0.093040235 0.4410879 -0.17199257 0.2136505 -0.112490244 -0.089228034 -0.079292595 -0.14675757 -0.07420415 -0.03815029 -0.10198347 0.051489066 -0.027245669 0.3652401 0.1446768 -0.20074454 0.024527755 -0.51364434 -0.023309326 -0.103556305 0.3217086 -0.06855394 0.0564786 -0.009935496 0.37858516 -0.012071803 -0.27012935 0.11218338 -0.57096094 0.2073514 0.03495888 -0.08163517 -0.5289949 0.19850709 0.38973072 0.088477544 0.087849125 0.093340196 -0.26589882 0.10601911 -0.5994794 0.42953253 0.1820856 0.423087 0.008256452 -0.43713504 -0.4847651 0.6051516 0.5034035 0.45744672 0.09074729 0.12635955 0.24189833 -0.13038887 -0.12281699 0.30350986 0.37234566 -0.220632 -0.09776741 0.12961559 -0.17019422 0.27505994 -0.30994046 0.0040253047 0.0856037 -0.09353606 -0.033711933 0.24282572 -0.5893623 0.17956038 0.066467874 -0.09329122 -0.28597242 -0.14158703 0.21343632 -0.2885 0.30851227 0.008842599
11_10099 0.18155952 0.080074504 0.08236671 0.09124436 0.34459758 0.342791 -0.41892445 -0.22633947 0.1719503 0.26569855 0.40965036 -0.033789355 0.17679967 0.63757604 0.08734553 -0.613678 0.13535678 -0.13683105 -0.31289285 0.2041534 -0.025512088 0.16238084 -0.48467845 0.04520838 -0.19708905 -0.14432195 -0.14022118 -0.21184509 0.025502246 -0.33385667 0.78676206 -0.3868969 0.023607975 0.012539287 -0.1521276 0.060092855 0.13538186 -0.18642586 0.22343478 -0.047539633 0.073379435 0.07361833 -0.49495876 0.16772887 0.27550575 0.032845806 -0.27170265 0.20821127 -0.3051428 0.2266533 -0.1882445 0.54544836 -0.040336378 0.0053644115 0.15098356 -0.03865643 -0.24982062 0.34762096 -0.20622024 -0.1679984 -0.03461419 -0.033376604 -0.06047929 0.3341375 0.49407923 -0.4397269 0.1995819 -0.36311352 0.10212524 -0.020690998 0.44432014 -0.32011294 -0.013839096 0.46084005 0.30532286 0.22448513 -0.09076335 0.20158155 -0.5581772 0.23492552 -0.2777612 0.07327735 -0.43481937 0.16330644 0.55104667 -0.23129924 0.08456048 0.32793674 -0.049707256 -0.15717521 -0.31810936 0.30137187 0.31221893 0.45187628 -0.151783 -0.21435398 -0.8587145 0.52289456 0.4574703 0.26267087 -0.11848315 0.20632409 0.25644127 -0.13640821 -0.32374123 0.40642333 0.77621526 0.20741129 0.4616769 -0.14223456 0.0068925866 0.4882134 -0.14776778 0.19599195 0.10207094 0.34796682 -0.15599436 0.054157358 -0.14654852 0.2408094 -0.09538633 -0.15920897 -0.3552603 -0.29260054 0.39853933 -0.35884774 0.359826 -0.084137775
14_10096 0.10013129 -0.086947314 -0.060354155 0.009870704 0.082313076 0.20329821 -0.028344484 -0.31442755 0.14230813 -0.09758053 0.099610455 0.16084577 -0.017585091 0.8200337 -0.21315874 -0.23714271 -0.0914243 -0.007788961 -0.16152772 0.5279521 0.18191607 0.3956483 -0.17538984 0.0059857867 -0.04697939 -0.13194479 -0.37298858 -0.04263496 -0.024559157 -0.28910255 0.13662708 -0.5725227 0.18884926 -0.41668883 0.26130983 -0.121069185 0.028314756 0.043931715 0.38851637 0.4487374 -0.0425787 0.41800064 -0.28606007 0.048072353 -0.03757369 0.100640155 0.051157795 -0.13686018 -0.13025929 0.096161656 0.2928382 0.22925694 -0.123926975 0.0121786995 0.07120147 -0.06396343 -0.27557582 0.02659463 0.12328585 0.18744345 -0.29249424 0.14511512 -0.079917654 0.5729259 0.0901378 -0.38857105 -0.22254625 -0.5732009 0.10798402 0.13113205 0.20275868 -0.23254803 -0.18793447 0.3010421 0.057083618 0.02627547 -0.20698546 -0.09468883 -0.51587254 -0.06321858 -0.07999879 -0.037619762 -0.47195745 0.4108443 0.092916705 0.057873234 0.356029 -0.091188215 -0.31916913 -0.27385032 -0.33055153 0.41289526 0.17899755 0.09076629 -0.061058328 0.09106182 -0.6517029 0.36655465 0.5609633 -0.027412117 -0.1093759 0.11867609 0.36980417 -0.16430712 0.30353993 0.1434409 0.27636102 -0.20531957 0.3754324 -0.07474591 0.3368303 -0.18501008 -0.105467334 0.008633947 0.07183546 -0.00031423158 0.31771743 -0.062090844 -0.28189364 -0.12205454 -0.26915678 -0.1376011 -0.13061444 3.522349e-05 0.46320316 -0.6075389 0.25125173 -0.35048762
7_10106 -0.09432936 0.108939014 -0.1867968 0.35867462 0.01955765 0.3593404 -0.21268186 -0.30164012 0.08066488 -0.22324331 -0.041959237 -0.046365686 -0.0356155 0.4463227 -0.13710679 -0.5390653 -0.086460024 -0.07371898 -0.0074899513 0.04385274 -0.1314527 -0.047976784 -0.30285293 -0.048006162 -0.055266805 -0.10888347 -0.27177787 0.026200425 -0.28507003 -0.5877412 0.40859908 -0.064403415 0.067542665 -0.0288383 0.29388383 -0.23884687 0.09805181 0.059499647 0.3884189 0.18381312 0.037173864 0.21300186 -0.51014715 0.15164717 -0.3951745 0.1768562 0.2178315 -0.045359533 -0.485203 0.061067786 0.3035922 0.27050403 0.21870956 0.044774678 -0.24478741 -0.21313418 0.044940338 -0.25582424 0.3576851 0.18464655 -0.28432545 0.19367173 0.023481417 0.3480083 0.43746093 0.12249674 0.40536705 -0.36408427 -0.1656963 -0.08947347 0.35849956 0.15798715 -0.11942877 0.48798233 0.088400416 0.01357123 -0.3358598 -0.14536703 -0.20343822 0.39730716 -0.27743465 0.18015736 -0.089772895 0.3294564 0.6525322 -0.26918352 0.29437354 -0.058957778 0.0122811785 0.39951953 -0.61619115 0.49482498 0.03565776 0.45876345 -0.39486668 0.20556505 -0.741852 0.0022224195 -0.11093206 0.2687021 -0.13627562 0.48353615 0.038979143 -0.34190056 0.048207678 0.09043161 0.6828968 0.081320524 0.06646004 0.42500117 0.22288448 0.24506918 -0.24133782 0.2235945 0.21550755 0.21722677 -0.076131396 0.332583 -0.15587236 0.344037 -0.13292526 0.0025402922 -0.080105275 -0.019270515 0.2941624 -0.37813374 0.37467438 0.16283743
11_10103 0.15609634 0.07121778 0.02028163 0.17345546 0.31886172 0.34349322 -0.39132628 -0.012111618 0.088359095 0.08382068 0.29998404 -0.22287065 0.18232547 0.4763303 -0.0048936238 -0.5368685 0.15549955 -0.17496982 -0.2507326 0.16306156 0.07614008 0.33367202 -0.66116863 -0.045859322 -0.185183 -0.16382775 0.012768759 -0.117412046 -0.10901071 -0.37047404 0.4353326 -0.25662008 -0.033564698 -0.0030094702 0.014931594 0.23135439 0.2151819 -0.103373826 0.17441832 -0.09285701 -0.08588295 0.07050003 -0.41338655 0.11473981 0.23356317 -0.076135166 -0.2527141 0.2515854 -0.26750708 0.19092047 -0.13141942 0.41106397 0.077054344 0.0015196673 0.05355293 -0.11467418 -0.13830495 0.20007493 -0.1392819 -0.04627058 -0.030074697 -0.13436155 -0.037828866 0.3498547 0.36388862 -0.35543966 0.10539774 -0.45596153 -0.06781955 0.28900734 0.27171314 -0.2015858 -0.0063469145 0.31409475 0.12348984 -0.007432033 -0.25184196 0.18023221 -0.4500399 0.14574951 -0.19978598 0.063452825 -0.35080844 0.055118464 0.36916852 -0.22628623 0.039297085 0.14432038 -0.08809809 -0.1444084 -0.3709736 0.32431185 0.12807347 0.423752 -0.12879677 -0.23534106 -0.5841142 0.48997134 0.20623139 0.10935601 -0.22110319 0.19362833 0.2937624 -0.005598276 -0.14984727 0.28273967 0.6823098 -0.027299806 0.5325067 -0.118640676 -0.09961985 0.5587789 -0.019972254 0.24503289 0.014710974 0.06409313 -0.0086507425 0.105041504 -0.20346725 0.17797701 0.07816419 -0.1186338 -0.32547936 -0.15176958 0.30974832 -0.3127457 0.26265508 -0.057312272
12_10104 -0.030277606 -0.00723089 -0.06366229 0.19683579 -0.111900434 0.28167966 -0.47085404 0.09891142 -0.061881308 -0.14672896 0.35147002 0.046199955 0.18620113 0.78560245 0.12141466 -0.1725728 -0.0040648095 -0.25362816 -0.20259856 0.28777727 0.2185525 0.23774737 -0.32295966 -0.053108152 -0.35293874 -0.17718923 -0.09037229 -0.04503137 -0.11161872 -0.07263938 0.5398867 -0.41095784 -0.050861843 -0.39825818 0.009749827 -0.023521122 0.16834415 -0.07873072 0.29227433 0.21737131 -0.13217492 0.0144326 -0.21198821 0.14880104 -0.03667853 0.02117746 0.20110914 0.20784707 0.08063056 -0.03551972 -0.04835044 0.40182307 0.024192931 -0.096422575 0.0939761 -0.03699717 -0.027237847 0.27942824 0.09027842 0.064227976 -0.14501776 -0.054376535 0.15855403 0.42437807 0.4446604 -0.31297824 -0.026481695 -0.7394997 -0.12526423 0.23916943 0.12994109 -0.3370097 -0.071594805 0.11319723 0.16246828 0.10209812 -0.1542639 -0.03913589 -0.38840407 0.15389767 -0.057467915 -0.21977709 -0.3380952 0.46003258 0.19771667 0.12095081 0.1898112 0.23178078 -0.24203406 -0.18268615 -0.26224208 0.33414882 -0.0062640645 0.21695556 0.14901794 -0.00375553 -0.46182907 0.5043828 0.04787447 -0.08667661 0.12025584 0.11745707 0.18349941 -0.30601045 -0.26293015 0.1832379 0.4558011 0.043714736 0.37228873 0.18044466 0.08543804 0.18012637 -0.13433534 -0.0243273 0.014785176 -0.051368933 -0.056067977 -0.0010522079 -0.27743375 0.24331377 -0.17691936 0.0039027845 -0.15712094 -0.09419907 0.107713416 -0.45966887 0.14506876 -0.13452968
11_10095 0.2390486 0.043135952 0.12161353 0.19934528 0.30917445 0.45273143 -0.49900487 -0.060522825 0.21110807 0.24477921 0.3163529 -0.08188059 0.15806143 0.6792824 0.031060075 -0.6092083 0.15929016 -0.1261146 -0.2594629 0.11102427 -0.04050482 0.094059974 -0.42679778 0.1391156 -0.29848534 -0.1306078 -0.17022589 -0.10604338 -0.25198558 -0.28722194 0.63194454 -0.51146615 0.042896613 -0.16796352 -0.12652732 0.084285006 0.16658978 -0.12003972 0.26975834 -0.036044735 0.06822785 0.06958992 -0.55832714 0.25709945 0.24355264 0.019505745 -0.4022063 0.39737648 -0.15654749 0.2796244 -0.2769339 0.4874979 0.10304682 -0.06329045 0.09560281 -0.05816798 -0.32954243 0.3164093 -0.13148959 -0.14539139 -0.057061426 -0.10059671 0.10796569 0.39105624 0.4058234 -0.38554093 0.09147537 -0.36908567 -0.056021247 0.099718586 0.32497293 -0.25297973 -0.03520031 0.48426455 0.4266613 0.26018927 -0.22071555 0.16484855 -0.5070409 0.27378023 -0.19049376 0.11817089 -0.6223738 0.21006644 0.41454417 -0.27618384 0.03416007 0.3082547 -0.1813985 -0.18574123 -0.3543012 0.30814323 0.3326936 0.47385117 -0.11988563 -0.10748939 -0.833557 0.3770007 0.5497701 0.30954945 -0.10795655 0.3175075 0.23976374 -0.23764116 -0.33758867 0.39825168 0.7066726 0.17976211 0.3940648 -0.2569291 -0.024175754 0.41566527 -0.10259313 0.27756467 0.10046025 0.43654904 -0.16586256 -0.00975418 -0.26260358 0.15587531 -0.13818462 0.012724302 -0.35715425 -0.11902042 0.23923248 -0.36234072 0.45456487 0.028130071
16_10096 -0.050027434 -0.07061756 -0.19331169 0.06542273 0.11497918 0.09586038 -0.35661355 -0.31232798 -0.14242768 0.27392268 -0.20872799 -0.14556722 0.018414944 0.53593516 -0.17482641 -0.41794264 -0.17232773 -0.06814152 0.022206122 0.17925058 -0.0109799225 0.51452136 0.15356562 0.10472626 -0.17106791 -0.11645907 0.011422961 0.09924093 0.30582803 -0.102127485 -0.114591256 -0.35592654 0.24270698 0.051819146 -0.040513765 -0.07978043 0.36350533 -0.107209735 0.27789804 0.03010779 -0.3429183 0.6603443 -0.30206797 0.19819145 -0.062253866 -0.13007785 0.27816394 0.035304192 -0.49064317 -0.027572872 0.3661369 0.00019422374 -0.06433305 0.10821541 0.25316176 -0.020800471 -0.1267729 0.005284179 0.27533156 0.08570096 -0.12480344 0.0135728875 0.09308342 0.4227017 0.16619207 -0.37909463 -0.27407613 -0.48386133 0.12950401 0.019717932 0.028938422 -0.18769042 -0.20861535 0.3642128 0.22074819 -0.16542122 0.019308008 0.13591549 -0.33368468 0.19464017 0.10307171 -0.23138696 -0.1985672 0.292624 0.3811842 -0.15708199 -0.010558686 0.0021717255 -0.4449209 -0.33647934 -0.5001624 0.4525338 -0.14725532 0.28268474 -0.092864625 -0.017676841 -0.5620321 0.36994305 0.3020389 0.00059745694 -0.06044046 -0.41226253 0.027555201 -0.053422023 0.25081566 -0.15831451 0.40341556 -0.122935526 0.38415295 -0.23991865 0.07193173 0.045094635 -0.20418297 -0.17612766 0.07419623 -0.14105313 0.10319104 -0.2436002 -0.10289518 -0.21049267 -0.3249664 -0.18079199 -0.22966917 -0.0770342 0.36596388 -0.16874309 -0.068669416 0.084527835
17_10106 -0.21356177 -0.32958588 0.11061096 0.29155958 0.17309338 0.16753557 -0.14535642 -0.41225687 0.041891716 0.013701855 -0.33414567 -0.10683377 -0.26637042 0.7270725 -0.29780033 -0.32897744 -0.121073514 -0.25440365 0.06363513 0.27142495 -0.11654261 0.316006 0.13216753 -0.026127934 -0.29496917 0.03566761 0.0634543 -0.21398045 0.43892092 0.05193738 0.23238517 -0.42364943 0.41467723 0.1091764 0.19186632 -0.09650618 0.26630095 -0.04328133 0.14040104 -0.011233786 -0.056190975 0.54001456 -0.011135119 0.11969164 -0.005269477 -0.161926 0.101757854 0.1947882 -0.21405329 -0.17874752 0.11458186 0.12016367 -0.03677434 -0.1055886 0.23186503 0.043038964 0.008036144 -0.10665496 0.32768422 0.07471707 -0.27880257 -0.089866735 0.11950767 0.3084217 -0.013714078 -0.24291721 -0.2223068 -0.6434638 0.17836499 0.17783575 -0.06756614 -0.40347266 -0.2509207 0.24446309 0.18663129 0.11564512 0.20085773 0.066610485 0.120042175 0.32648966 -0.013811654 -0.15330952 -0.09192811 0.29188684 0.20263697 -0.20868629 0.35227817 -0.1492914 -0.45879912 0.06860753 -0.5788779 0.2618024 0.18399619 0.4201878 -0.07983523 0.17837745 -0.86146194 0.033398043 0.24057938 0.10119818 -0.12638973 -0.24483424 0.22070582 -0.14030907 -0.003300685 0.23370185 0.18951006 -0.008252197 0.4160198 -0.07760252 0.09114267 -0.2074718 -0.22196783 -0.24655154 0.10793019 -0.2280068 0.25938606 0.08702635 -0.08190226 0.13256304 -0.18017621 -0.19654594 -0.5788749 -0.36504558 0.3524776 -0.3452275 -0.12656745 0.063337885
12_10101 -0.13229278 0.12492626 -0.19050215 0.12779793 0.034641817 0.07999585 -0.49968067 -0.078267016 -0.09727291 0.01765217 0.45663613 0.23458767 -0.08678063 0.64369804 -0.109289736 -0.26449084 -0.09045714 -0.1503899 -0.027113369 0.32428533 0.20770052 0.21836565 -0.33306286 -0.13322067 -0.41762522 -0.27814293 -0.15268487 0.08945128 0.13772096 -0.0098576965 0.44688255 -0.5812686 -0.038121987 -0.39341858 -0.12094161 -0.1717832 0.30192453 -0.09595032 0.4176705 0.15570891 0.054848716 0.2837035 -0.44298196 0.3503971 -0.092895344 0.12028367 0.14712152 0.2302496 -0.12660086 0.09512266 -0.047440253 0.47560003 0.16731387 0.0058348146 -0.15375985 -0.21402265 -0.0154868765 0.20342717 0.2627271 -0.13520399 -0.26181683 0.41943768 -0.041922703 0.40546936 0.444281 -0.5087962 0.010706439 -0.6924062 -0.041616622 0.1258009 0.2715596 -0.2850995 -0.07354865 0.1981466 0.26455337 0.19911513 -0.16292989 0.0033500858 -0.24675941 0.14799638 -0.24001597 -0.1407133 -0.3252499 0.54154044 0.17756003 0.1498557 0.10745711 0.28117275 -0.12089138 -0.26847786 -0.16082075 0.32626146 0.07944552 -0.0075375247 0.15255062 -0.23023996 -0.48082507 0.44898826 0.15521763 0.018426633 0.10077165 -0.06403087 0.25485346 -0.3150646 -0.061292544 0.29093462 0.3289503 0.23559132 0.2704706 0.18610041 0.23507723 0.2524143 -0.14940496 -0.033179484 0.3171856 -0.09446732 0.21672906 -0.12803307 -0.21265362 0.09275144 -0.20054321 -0.0017838005 -0.1932712 -0.080457985 0.4242741 -0.34233406 -0.09235244 0.0875512
20_10101 -0.23635331 0.03482438 0.36946443 -0.046389837 0.17870942 0.32222846 -0.17048621 -0.17558615 0.18847078 0.118742496 0.04923344 -0.20807685 0.3141113 0.35192966 -0.06141 -0.5260543 -0.05393677 0.0206897 -0.13562241 0.17822868 -0.054801762 0.61492854 0.19565499 -0.053158343 -0.23603731 0.09452849 -0.09448312 -0.67938524 0.2486674 0.33511633 0.2195878 -0.034046333 0.3245118 0.013235687 0.13088216 -0.44837347 0.32999104 -0.17695478 0.090109564 0.13039668 0.05646974 0.50259924 0.16873077 0.12118798 -0.07697772 -0.2543524 0.32121238 0.32404438 -0.44829884 -0.035564654 0.13127923 0.050078314 0.25024956 -0.27030855 0.12341179 -0.60017014 -0.12569062 0.17453492 0.13968438 0.09018704 -0.3280122 -0.2667435 0.045261014 0.3764363 0.21040107 -0.77600515 -0.49110013 -0.3469939 0.33079872 -0.06377108 0.029563595 -0.5323127 -0.64094424 0.027371256 0.49885195 0.26496938 0.042037033 0.2307831 0.16497783 0.2946452 0.12467681 -0.4278941 -0.45068824 0.07312085 -0.1455934 -0.22959667 0.03849672 -0.023500375 -0.1456629 0.039329696 -0.36094445 0.06092875 -0.17326382 0.14818633 0.24665652 0.11967956 -0.743329 0.077222966 0.34849107 -0.20337415 -0.16519837 -0.33031243 0.29182315 -0.21477589 0.09574529 0.097549215 0.10228063 0.38084975 0.67803705 0.024976237 0.2761747 -0.24845366 -0.017020714 0.16346286 0.00626975 0.07191832 -0.022485144 -0.4406153 0.06575703 -0.11710992 0.21275552 -0.19341873 -0.6080084 -0.10102598 -0.008459618 -0.6970062 -0.10394989 0.24552423
7_10093 0.070023745 0.18867773 -0.3068466 0.32417998 0.09253843 0.4708802 -0.086445235 -0.22289006 -0.28382778 -0.33135152 -0.117671885 -0.12996492 -0.17543624 0.45341778 -0.17222533 -0.47682843 -0.23762015 -0.0047316863 -0.040982295 -0.030328969 -0.099512875 0.027833998 -0.681769 -0.14509417 0.09560478 -0.2683923 -0.023271115 -0.060133897 -0.20398968 -0.48625565 0.34344992 0.063519605 0.021441031 -0.08067811 0.14926374 -0.18084753 0.26911095 -0.034296446 0.5266907 0.2998997 0.026569862 0.31985304 -0.62732077 0.01651642 -0.37846398 0.1622045 0.07574694 0.05967336 -0.57903427 -0.076329015 0.38516024 0.18150002 0.38922986 0.049839895 -0.24115281 -0.33123878 0.17014088 -0.25889266 0.26426113 0.2063164 -0.18938264 0.41226622 -0.028134882 0.16625333 0.63008195 0.16902286 0.32390398 -0.29171458 -0.46370178 -0.18665256 0.15102421 0.3049136 -0.27965996 0.20395872 0.1460874 -0.19591543 -0.24180084 -0.15880926 -0.2547897 0.22639653 -0.4044042 0.019332575 -0.07894622 0.4880935 0.7212825 -0.464468 0.14937556 -0.1944588 0.02254999 0.46131688 -0.4505937 0.6022017 -0.12923335 0.09730153 -0.18371308 -0.07720088 -0.7636222 -0.014458527 -0.03832156 0.004200105 -0.38117653 0.42046046 0.114079624 -0.17735995 0.32271537 -0.026966281 0.77983814 0.030104592 0.15632668 0.2058152 0.14349383 0.17389625 -0.31185716 0.48732665 0.29764032 0.23491067 0.15016195 0.40392274 -0.20193467 0.3759189 -0.15424381 -0.08952903 -0.19422132 -0.0046236822 0.2702619 -0.32056305 0.26801544 -0.022868725
16_10094 -0.073694214 -0.008282301 0.07697194 0.07880266 0.19601649 0.24492237 -0.48426312 -0.24882895 0.053156085 0.09261377 -0.17941761 -0.31284013 0.07181861 0.34021267 -0.24528071 -0.38178968 -0.15869497 -0.28390527 0.21484119 0.24029404 0.15402289 0.45207796 0.21376695 0.08554804 -0.13037004 0.20931308 -0.21490066 0.037523642 0.25468644 -0.018360937 -0.11422223 -0.26961648 0.117596515 0.10115498 0.15852582 0.26485682 0.44145322 0.006364587 -0.060035955 -0.035140693 -0.13875735 0.70080775 -0.14037302 0.24409029 -0.054690786 0.030459715 0.29174677 -0.31522307 -0.33133444 0.17883976 0.29041842 0.21327332 -0.12584335 0.0018415119 0.13855076 -0.024263602 -0.34771043 0.35407585 0.11785816 0.14859661 0.061240993 -0.2043317 0.23862627 0.2134537 0.07220241 -0.33420014 -0.30571145 -0.47491348 0.17241675 0.18201496 0.08849556 -0.10115957 -0.21988192 0.26642787 -0.002303474 -0.0011093809 -0.36320192 0.1837225 -0.4025097 0.11311838 -0.06722063 -0.3036812 -0.4353898 0.3085555 0.3177187 -0.20859641 -0.14247882 -0.022430334 -0.40774333 -0.30833173 -0.6269529 0.60768735 -0.07404481 0.46784186 0.1044257 0.028468985 -0.47563344 0.42149043 0.20558211 -0.14798124 -0.13681442 -0.43273833 -0.010708662 0.07013986 0.12649143 -0.028726168 0.26079807 -0.15636906 0.5551012 -0.022322692 0.018508032 0.18796752 0.005303115 -0.026921352 0.12876211 -0.21782279 0.036935024 -0.28659454 -0.08838652 -0.10519692 -0.045912508 0.0031826233 -0.2864611 0.10992652 0.48162067 -0.40464297 -0.007248286 0.1447745
14_10106 0.17428133 -0.09276562 0.07317255 0.015148173 0.15042129 0.20900723 -0.09202264 -0.37314782 0.10577406 0.040544376 0.071219906 0.05039974 -0.011522697 0.9428901 -0.1970123 -0.08801971 -0.20570102 -0.10850232 -0.16660577 0.4270687 0.07161947 0.5497986 -0.05614958 -0.015901443 -0.15980248 -0.27590314 -0.2281649 -0.1567038 -0.009044105 -0.34367362 0.3122064 -0.54602957 0.06372731 -0.28290886 0.35119188 -0.13413015 0.10625264 0.033473596 0.49204612 0.35168207 -0.2226124 0.410113 -0.3692912 0.026261045 -0.000443477 0.0026306396 0.095931835 0.019603433 -0.039673463 0.040409986 0.34016198 0.16130818 -0.16193397 -0.022166962 0.12686498 0.041688036 -0.46673352 0.0035672176 0.08951403 0.3233613 -0.2520073 0.07707318 -0.12187128 0.52341735 0.18883963 -0.40371603 -0.31495568 -0.61244446 0.09455704 0.043656245 0.1404953 -0.20903252 -0.1926782 0.2717319 -0.005038185 -0.0684092 -0.11905312 -0.08283018 -0.47943377 -0.07913147 0.027644107 -0.08763475 -0.32612348 0.37577656 0.073163435 0.04240052 0.3753794 -0.10583142 -0.4268387 -0.36479923 -0.24738783 0.44049338 0.12534274 0.15692021 0.01242406 -0.030891472 -0.55455285 0.33028355 0.57480997 -0.034961 -0.020888008 0.15490042 0.40861058 -0.13980114 0.23151469 0.29291126 0.20974289 -0.20554662 0.45670357 0.06387176 0.26357985 -0.15935554 -0.06750606 -0.044133108 -0.011878441 -0.14693601 0.343001 -0.14633274 -0.21565099 -0.10337758 -0.28534347 -0.16892625 -0.16455829 0.094609894 0.4990469 -0.6880717 0.29287857 -0.20240627
9_10101 -0.2868374 -0.21395624 -0.22881362 -0.025630126 0.07192092 0.18983985 -0.4877273 -0.09402397 -0.27968547 -0.21920389 0.43791744 -0.047596794 0.11285339 0.37935632 -0.10330087 -0.36914757 0.22714372 -0.24668695 0.33710915 0.39276913 -0.14914761 0.21439956 -0.5796013 -0.24498682 -0.15411186 -0.27330056 -0.00059572625 0.029792732 0.21551725 -0.4707941 0.40449926 -0.2419377 -0.09406135 0.23261338 0.07885726 0.13551879 0.108949244 -0.10390144 0.33951536 0.19700184 0.013093349 0.31052166 -0.37032852 0.3143098 0.13536517 -0.2429093 -0.14074394 -0.09534483 -0.41361347 -0.04489463 0.31365305 0.028323995 0.16043359 0.109555095 -0.0010896104 -0.4231131 0.01945915 0.022734858 0.054195862 -0.069979005 -0.245773 0.25807258 0.28644258 0.49293715 0.39923015 -0.21282957 0.0116701545 -0.13751273 -0.026451526 -0.006070599 0.8076921 0.22445773 -0.12144078 0.32115677 0.12142434 0.28831622 -0.2233905 -0.061395805 -0.0011088668 0.034340408 -0.33313823 -0.31064546 -0.3403017 0.20417942 0.492124 -0.2447585 -0.04212241 0.10169415 -0.009259649 0.24034955 -0.42976677 0.38806674 0.07038592 0.07227949 0.02895776 -0.19598038 -0.5480062 0.1303362 0.29210025 0.051945366 -0.01129424 0.063411325 -0.24345055 0.09152935 0.22551669 0.28888154 0.61695075 0.18927188 0.245903 -0.008648644 -0.1055854 0.15017153 -0.14227584 0.17993794 -0.07836429 0.2580681 0.13145 0.11758404 -0.15389682 0.23806326 0.15111311 -0.027411 0.08374357 0.0032545808 0.49621522 -0.4437748 0.35638696 0.050113566
9_10094 -0.48337623 -0.15565619 -0.036075167 0.08561718 0.14404081 0.25911713 -0.3641429 -0.05713219 -0.054253843 0.19394091 0.32157597 -0.09182708 0.1329837 0.27219924 -0.13481015 -0.16560052 0.08841761 -0.34961596 0.15107283 0.09648079 -0.24479757 0.051753346 -0.6696549 0.18617915 0.0965546 -0.030720396 -0.0020264636 -0.0844397 -0.024355778 -0.29973713 0.32929474 -0.18973687 0.18750782 0.26339504 0.25522596 -0.06485749 0.18114251 0.13182114 0.49302116 0.09904486 -0.06749549 0.15285322 -0.56700295 0.23496759 -0.17645791 -0.31026563 -0.10883933 0.16455677 -0.3923993 0.38310224 -0.1020695 0.22691059 -0.08898419 0.120353356 -0.08512629 -0.3638672 0.14008962 -0.1366078 -0.22423658 0.16082267 -0.44952902 0.07615149 0.066264726 0.22828947 0.58516824 -0.29063463 0.2189297 -0.32074 -0.058584247 0.16321464 0.4239422 0.135138 -0.20121877 0.36077458 -0.1999061 -0.07120033 -0.3527679 -0.04632368 -0.09887839 0.021984493 -0.4352158 -0.2768247 -0.056225687 0.046017684 0.7021493 -0.115183786 0.18638249 -0.016762905 0.055324007 0.30211014 -0.5690219 0.2973362 0.043390483 0.15822828 -0.09074668 -0.08314775 -0.34745097 0.4096764 0.122449234 0.18169497 -0.05291984 0.19570477 -0.17328376 0.22539406 0.28069118 0.33394432 0.42338282 0.12741803 0.44609916 0.2621184 -0.28713414 0.18149507 -0.09844081 0.05723532 -0.114986725 -0.16294976 0.31140327 -0.1968124 -0.086781524 -0.02989188 -0.18467751 0.093096875 -0.2866339 -0.13153759 0.5220569 -0.5096068 0.58306336 -0.16956724
18_10100 -0.11809136 -0.17152664 0.10441621 0.18845607 0.09311976 0.22462276 -0.232316 -0.40813148 0.011697896 0.29218823 -0.19092934 -0.3318003 0.0397033 0.6544338 -0.12382493 -0.2749297 0.18660252 -0.21969636 0.16456418 0.22450522 -0.048540752 0.21619128 0.17096098 -0.04541272 -0.25449762 -0.05510728 0.38907596 -0.44116458 0.1681425 0.07234231 0.40362388 -0.14658259 0.26192537 -0.28023714 0.100623645 -0.39220098 0.3492607 -0.14439242 0.20547974 -0.13250287 -0.45450008 0.6007342 -0.19463816 0.23878656 -0.26599503 -0.24817416 0.044522293 0.08711535 -0.19022588 -0.112875 0.10004419 0.20345834 0.20791544 -0.2588202 0.040199563 -0.3758842 -0.28614503 0.040135887 0.4683637 0.23288795 -0.18923894 -0.3361639 0.039703503 0.34853527 0.055319805 -0.25005025 -0.1911589 -0.22872055 0.1441014 0.19851208 -0.17568862 -0.15902004 -0.2608083 0.41095766 0.071983255 0.23927408 0.2024669 -0.10364966 0.265378 0.4943087 0.18647864 -0.31124502 -0.15350418 0.12973136 0.054673273 -0.24264959 -0.019282382 -0.13839978 -0.18161544 -0.014211287 -0.21991421 0.19580664 0.12599994 0.3762475 -0.0025147072 0.00090574025 -0.7305061 0.24761505 0.13612911 -0.09657872 0.119279176 -0.079532176 0.2555418 -0.070415094 0.29006103 0.18676636 0.18062231 -0.19938448 0.7888214 0.039506666 0.47010523 -0.04093523 0.04405646 -0.070761226 0.1446684 -0.16635287 0.39734372 0.07545104 0.0972557 0.30597106 0.0323753 -0.0131657 -0.30810764 -0.22275302 0.29402885 -0.46115175 -0.06508703 0.29900557
20_10096 -0.038023368 0.11165457 0.259228 -0.09858779 0.24399038 0.35648158 -0.16238119 -0.07649515 0.18009882 0.2578104 -0.0071868827 -0.20695159 0.0065700877 0.37968463 -0.04805613 -0.3306191 -0.105687544 0.072630756 -0.055604752 0.3062283 -0.17569384 0.5161175 0.14467494 -0.20722164 -0.20465088 0.07087973 0.15798584 -0.46474615 0.11607505 0.12701607 0.22597536 -0.056716572 0.22252668 -0.0063599013 -0.12095022 -0.32098708 0.31586614 -0.29072425 0.14236371 -0.0073325485 0.13995108 0.34462538 0.105783366 0.086968884 -0.10443652 -0.24210583 0.0885527 0.3613823 -0.28672913 -0.13327624 0.06271514 0.14640063 0.2618446 -0.07868446 0.04774164 -0.44787404 -0.072301164 0.205208 0.26370028 -0.032655593 -0.23486067 -0.30994612 0.023511462 0.26095247 -0.008693974 -0.5697141 -0.42034557 -0.35479718 0.39498675 -0.10860167 0.16138801 -0.39817563 -0.5020927 -0.013114972 0.38383654 0.19885162 0.03286688 0.3047353 0.15049814 0.2440425 0.14284946 -0.5676054 -0.5420816 0.12186177 -0.20419805 -0.11167044 0.09127908 -0.076634295 -0.3530998 -0.14315009 -0.5328109 0.16989519 -0.010844466 0.19494674 0.24835274 -0.05710438 -0.6821603 -0.18084481 0.32853484 -0.22764143 -0.14889434 -0.4258372 0.19707064 -0.03646148 0.077977546 0.2433235 0.22962184 0.11655656 0.59884626 -0.062433284 0.08820068 0.04734787 -0.07247786 0.03996561 -0.015006311 0.085349195 -0.058243155 -0.3130049 -0.021071665 0.018551836 0.17355536 -0.21311331 -0.41884083 -0.32772857 0.057720255 -0.71371067 0.03070153 0.22467792
16_10093 -0.35674444 -0.20390645 -0.07725188 0.09805333 0.12469249 0.07727421 -0.18272522 -0.40304688 0.016393697 0.21076787 -0.25902048 -0.17344777 -0.24964401 0.62377125 -0.43613073 -0.10888082 -0.21708338 -0.29093078 -0.13928707 -0.14848821 -0.151759 0.28906202 0.105152644 -0.17422883 -0.28828886 -0.22809233 -0.17772087 0.05276365 0.15915082 -0.1849598 -0.044739123 -0.45811823 -0.0039465567 -0.0119645 0.10693467 0.08318437 0.4887352 0.013671013 0.22344056 0.13291585 -0.3167398 0.806045 -0.025527472 -0.089230865 0.04355185 -0.06962291 0.2745053 -0.033731136 -0.1382754 -0.1761727 0.3183418 0.24672522 0.04684111 -0.074816905 0.24435279 -0.10558865 -0.40518573 0.06928976 0.08940178 -0.056483697 -0.08963016 -0.07904525 -0.0051182657 0.35150915 0.59540945 -0.18241884 -0.31402454 -0.685079 0.21485388 0.015262447 -0.036825705 -0.23848696 -0.15584409 0.40747914 0.33978745 -0.15393658 -0.092954285 0.024572002 -0.31660014 0.21102755 0.13820095 -0.27860424 -0.18460475 0.050580334 0.2483186 -0.25878683 0.12447695 -0.1076441 -0.6008908 -0.046371505 -0.5733088 0.3106441 -0.1431242 0.26944178 0.14212693 -0.31712812 -0.63460034 0.23325895 0.28977853 -0.024204832 0.19855554 -0.21220016 0.11167541 -0.30658686 -0.09029139 -0.20874856 0.3855134 -0.20641236 0.688537 -0.2131893 -0.16950355 0.15982662 -0.33062482 -0.16117139 0.15832545 0.12508142 0.10936899 -0.22959068 -0.3848749 0.1760382 -0.10691322 -0.087544836 -0.43880472 0.017593993 0.6899543 -0.13408728 -0.029822849 0.26607576
19_10106 -0.29544953 0.28294328 -0.043684352 -0.056291226 0.28584725 0.34450015 -0.12632187 -0.2962095 0.16574407 0.23094495 -0.20896219 -0.2676998 0.020778999 0.4245085 -0.032698046 -0.24837485 -0.047640387 -0.039141215 -0.07092297 0.30003396 0.06993988 0.61784166 0.09023714 -0.1991972 -0.10465033 -0.004024644 0.22705004 -0.50195646 0.043817054 0.13636577 0.30656374 -0.13306195 0.23734955 -0.066675425 -0.057330918 -0.4842521 0.4281569 -0.24817611 0.15283644 0.19156925 -0.10112569 0.47309938 0.029055675 0.14774211 0.01961188 -0.079907626 0.22360878 0.24312954 -0.35627523 -0.020001227 -0.029310565 0.09834831 0.13121806 0.084052145 0.06750082 -0.6314362 -0.18510044 -0.01543368 0.31050193 0.1087717 -0.26408458 -0.32270563 -0.13822557 0.3160888 0.12589951 -0.37054652 -0.37021008 -0.1983175 0.30461 0.032576803 -0.16169523 -0.4326492 -0.43149698 0.15704545 0.082336225 0.39725044 0.10993766 -0.03292101 -0.039680164 0.071303315 -0.1409625 -0.48497367 -0.31614614 -0.067926 -0.15572649 -0.17171621 -0.08028839 -0.18250877 -0.4635763 -0.0031275935 -0.5499008 0.3568575 -0.18781774 0.45808694 0.06151384 0.1246151 -0.61084765 0.0008194112 0.118376456 -0.39848706 -0.07415742 -0.023699936 0.14204772 -0.07824061 -0.040440526 0.010352935 0.30049 0.09174687 0.62901825 0.07811079 0.2570993 0.041678112 0.05482485 0.00038507234 -0.035534654 0.0031889102 0.18162164 -0.08283717 0.10855458 0.026646823 0.18992227 -0.17944284 -0.53812444 -0.36125398 0.06140086 -0.5772414 -0.30763555 0.008026303
17_10100 -0.14332928 -0.38618731 -0.07264853 0.28872028 -0.035945855 0.030151082 -0.11950472 -0.14144112 0.057058733 0.14747427 -0.078222886 -0.12614736 -0.22339414 0.62225467 -0.3288967 -0.2957769 0.05755974 -0.32631806 0.09581153 0.2776901 0.018089037 0.24431017 0.02814195 -0.0019186521 -0.42019826 -0.04477574 -0.02222127 -0.11306584 0.4155376 0.024253462 0.15717205 -0.46806663 0.4397297 0.23698433 0.32556885 0.16047223 0.18673897 -0.08391135 0.1563522 -0.09966273 -0.26607716 0.6005534 -0.044107143 0.39641702 0.12497168 -0.18174343 0.16209893 0.031322427 -0.16954352 -0.008583385 0.32613146 0.3608393 0.139925 -0.15753764 0.23557527 -0.076106854 -0.039116632 -0.07776706 0.2733965 0.097835995 -0.37856966 -0.0034003719 -0.029764721 0.40379032 -0.12559691 -0.29139057 -0.0457414 -0.47588736 0.17200695 0.31796268 -0.070834704 -0.430848 -0.22798494 0.39018583 0.12067152 0.06515241 -0.01232017 0.00485499 0.17352705 0.35839173 -0.058730047 -0.25347802 -0.20255582 0.2833589 0.01478653 -0.28150702 0.39185914 -0.13346405 -0.42392465 0.09200986 -0.52309793 0.2808657 0.008253317 0.34814796 -0.15677485 0.2637096 -0.6961964 0.03312916 0.24910524 0.37392104 -0.18666556 -0.27183565 0.08175912 -0.11327817 0.11138111 0.28630096 0.13634093 0.018683733 0.6021788 -0.21351106 0.28824848 -0.13528521 -0.06623719 -0.29729486 0.17984034 -0.15424553 0.19550389 0.10589396 0.11452591 0.1399677 -0.11604908 -0.1759284 -0.7422063 -0.15829135 0.39450154 -0.39926252 -0.20969932 0.19940077
7_10104 -0.11532585 0.060162947 -0.258806 0.27456936 -0.08155534 0.34220245 -0.24181712 -0.30842108 0.039416935 -0.005135678 0.06806943 -0.0718133 0.23358631 0.32650512 0.13336533 -0.47780472 0.020805586 0.15436392 -0.18183656 0.090771765 -0.15159984 0.030833429 -0.24223927 -0.043918546 -0.047139592 0.004202743 -0.33554277 0.07934744 -0.1617929 -0.6359956 0.45030582 0.048048627 -0.036338683 0.15935443 0.27987692 -0.31074446 0.12537707 -0.07929676 0.31101426 0.13565363 0.02405305 0.15076783 -0.34136906 0.28331065 -0.43530774 0.1503485 0.30818275 -0.11441156 -0.41089246 0.069446556 0.43552348 0.3540438 0.14842406 -0.051199447 -0.25237796 -0.26361904 0.023891548 0.04695847 0.2795216 -0.06880288 -0.22195488 0.031471815 0.2043198 0.37756783 0.32222417 0.099689364 0.3641896 -0.30604145 -0.1739747 -0.14642775 0.4339129 0.114326715 0.023964908 0.4393125 0.12896545 0.015613861 -0.31539133 -0.23836005 -0.1713021 0.30043668 -0.22995797 0.11811763 -0.055013813 0.33738795 0.43900108 -0.16682991 0.06854357 0.008256398 0.028817555 0.39408642 -0.6493442 0.41835013 -0.014864904 0.4506914 -0.33811468 0.0867931 -0.6070154 -0.034208577 -0.12450086 0.31458908 -0.30400676 0.46019918 -0.21704382 -0.21208142 -0.090111904 0.25591353 0.6659781 0.104092754 0.08688087 0.46472868 0.11852429 0.2720887 -0.19968373 -0.013053314 0.23567586 0.09384036 -6.70843e-05 0.26009122 -0.20112833 0.48878595 -0.17588173 -0.040595736 -0.07280369 0.101631366 0.15931314 -0.3383235 0.35740966 0.09550923
11_10096 -0.12991711 0.060351305 0.22116183 -0.0061557773 -0.007921794 0.03850612 -0.29675445 -0.121458024 -0.12023326 0.19758913 0.2532972 -0.042081892 0.13350631 0.4281552 -0.1366881 -0.36412683 0.06579508 -0.12148287 0.09480205 0.1830752 0.16240191 0.3042274 -0.3248575 -0.12143612 -0.48743063 -0.16738817 0.022819573 -0.0018474201 0.0067311255 -0.29343817 0.47122166 -0.3945708 0.16689138 0.10984161 -0.068078905 0.07753308 0.29230848 -0.1381005 0.44410792 0.05892923 -0.1271643 0.17302704 -0.55886436 0.3078275 -0.080014534 0.12939799 -0.38723558 0.28003266 -0.3239828 -0.018668668 -0.08427109 0.43190008 -0.085222535 0.20337996 0.013775677 -0.21859606 -0.068752214 -0.014857348 -0.08677792 -0.122300856 -0.19109234 0.27521646 -0.047994263 0.25970575 0.22437294 -0.46171564 0.063204184 -0.4814151 -0.03747767 0.20819403 0.28720266 -0.15722612 -0.123890065 0.13176659 0.25727436 0.24344702 -0.06608158 0.21603653 -0.2818133 0.31936735 -0.20569421 -0.18057817 -0.12703295 -0.12289741 0.37751144 -0.015171336 0.14316244 0.12158808 -0.057433024 0.025684267 -0.46306863 0.31317678 0.043249283 0.43559107 0.09192015 -0.22532715 -0.55826443 0.35507983 0.22677134 0.20438781 0.05858272 0.30802882 0.2171084 -0.13208744 0.1321393 0.3236237 0.49797764 0.011759491 0.14795788 0.010713062 -0.0193915 0.41742107 -0.13361889 0.18726154 0.17434986 -0.08951265 0.01797234 0.20078737 -0.3075226 -0.013718226 -0.15070833 -0.01368881 -0.08110533 -0.12234229 0.50074685 -0.27328932 0.36361822 0.060373183
20_10093 -0.6082997 0.09706878 0.23417522 -0.012352782 0.045631528 0.5286424 -0.17509156 -0.03738301 -0.06674865 0.22944508 0.1757456 -0.25150636 0.21437956 0.49145186 -0.061602402 -0.2797553 -0.15132764 0.11847055 -0.17227812 0.27494824 -0.012435102 0.73339343 -0.027026283 -0.292624 -0.2824363 -0.26231137 -0.19324498 -0.5180286 0.42294163 0.27997097 0.19027376 0.025607198 0.19061069 0.04817363 0.045034215 -0.12340372 0.59684515 -0.20356329 0.019676495 0.36934674 -0.057193242 0.5217684 0.21153359 0.12477147 0.16898505 -0.20804767 -0.020154962 0.32373944 -0.444175 0.03408977 -0.039324097 0.07297103 0.17287703 -0.024952475 -0.051040072 -0.5366388 -0.07686912 -0.0297918 0.15497838 0.20342132 -0.22754249 -0.31217894 -0.04533566 0.41405106 0.050022323 -0.4942847 -0.2625593 -0.2890133 0.35980245 -0.10480066 -0.1457136 -0.48869634 -0.4052332 -0.052288495 0.44653994 0.06979996 0.06422305 0.28862888 0.15268125 0.0794816 0.15784265 -0.29082543 -0.49208817 -0.017512102 -0.33072308 -0.19317658 0.32290566 -0.29552522 -0.36098677 0.12367704 -0.50467926 0.11703703 0.017825637 0.089191765 0.15740378 -0.18960668 -0.48065317 -0.05774147 0.31266347 0.11830579 -0.36024317 -0.25518864 0.20556931 -0.26625782 -0.10340122 -0.012079706 0.2859881 0.19466631 0.8929578 0.07124413 0.1507616 0.080479026 -0.057849217 -0.04972013 0.04091073 0.054588217 0.090148546 -0.3173841 -0.12621671 0.1272053 0.2356977 -0.07785637 -0.52012676 -0.41899952 0.05488765 -0.7304862 -0.30588734 -0.021758633
